3.158860839903354645e-03 5.836140364408493042e-02 -2.699051238596439362e-02 6.256365031003952026e-02 -7.155006378889083862e-02 -2.622618805617094040e-03 1.877232082188129425e-02 2.886918373405933380e-02
0.000000000000000000e+00 0.000000000000000000e+00 0.000000000000000000e+00 0.000000000000000000e+00 0.000000000000000000e+00 0.000000000000000000e+00 0.000000000000000000e+00 0.000000000000000000e+00
-7.182970643043518066e-01 -1.152378916740417480e+00 5.004221200942993164e-01 2.018981695175170898e+00 1.351447224617004395e+00 1.297889471054077148e+00 3.408921480178833008e+00 1.538388609886169434e+00
-2.882122755050659180e+00 -2.039897739887237549e-01 1.809254884719848633e+00 -2.021771110594272614e-02 1.877814412117004395e+00 1.665697574615478516e+00 3.114690303802490234e+00 5.153207778930664062e-01
-1.820228457450866699e+00 -3.955873847007751465e-02 -1.580823063850402832e+00 1.358682215213775635e-01 2.216938257217407227e+00 2.711578130722045898e+00 4.945568561553955078e+00 -5.065680146217346191e-01
-1.325989007949829102e+00 -2.166647613048553467e-01 2.518049955368041992e+00 2.895493984222412109e+00 -4.421357512474060059e-01 -1.976118564605712891e+00 2.007409334182739258e+00 2.042284965515136719e+00
-1.060291171073913574e+00 -1.852657675743103027e+00 6.049942970275878906e-01 8.317826390266418457e-01 2.381174087524414062e+00 1.541506052017211914e+00 3.139429092407226562e+00 2.729073286056518555e+00
-1.619068622589111328e+00 1.000151872634887695e+00 8.293172717094421387e-01 1.122240647673606873e-01 1.744155645370483398e+00 5.837523341178894043e-01 2.261170864105224609e+00 -1.237443804740905762e+00
2.481156438589096069e-01 -8.673067092895507812e-01 9.881989359855651855e-01 3.338997125625610352e+00 3.752005100250244141e-01 -4.387549459934234619e-01 2.527608394622802734e+00 1.308689236640930176e+00
4.204101860523223877e-01 -6.563871502876281738e-01 1.792648881673812866e-01 2.320285797119140625e+00 2.474475622177124023e+00 1.293136954307556152e+00 2.771849155426025391e+00 -3.045992136001586914e+00
-9.696238636970520020e-01 -6.045083403587341309e-01 4.160675704479217529e-01 1.123406887054443359e+00 1.359414100646972656e+00 5.725046992301940918e-01 2.508600473403930664e+00 1.847003579139709473e+00
-2.033086299896240234e+00 -9.072109460830688477e-01 1.867113232612609863e+00 -4.601024687290191650e-01 1.266178250312805176e+00 -6.087887883186340332e-01 2.327903270721435547e+00 1.026957273483276367e+00
-3.536003530025482178e-01 5.176767706871032715e-01 1.805899977684020996e+00 4.740777492523193359e+00 6.493725180625915527e-01 9.720247983932495117e-01 3.175766229629516602e+00 3.070580959320068359e-01
-4.182289242744445801e-01 2.952240109443664551e-01 7.400674819946289062e-01 3.894292831420898438e+00 5.014674067497253418e-01 1.260958313941955566e+00 3.365217208862304688e+00 -4.327479302883148193e-01
-1.128973007202148438e+00 -3.334223851561546326e-02 1.548294901847839355e+00 4.412816047668457031e+00 -4.319497942924499512e-01 -7.109258770942687988e-01 3.686357736587524414e+00 -2.564816772937774658e-01
1.017365455627441406e+00 -1.686030328273773193e-01 1.607561707496643066e+00 2.859590530395507812e+00 -1.158984303474426270e+00 -4.365591526031494141e+00 2.208616733551025391e+00 5.447170138359069824e-01
-1.113914132118225098e+00 1.864149719476699829e-01 9.823361635208129883e-01 -1.943236440420150757e-01 1.640392899513244629e+00 2.398356497287750244e-01 2.094975709915161133e+00 4.629620611667633057e-01
-2.178603172302246094e+00 -9.160557389259338379e-01 3.792721271514892578e+00 -3.280280828475952148e+00 4.011975288391113281e+00 -1.453036069869995117e-01 3.227924823760986328e+00 2.895775318145751953e+00
-2.460242271423339844e+00 -9.734094142913818359e-02 3.799278974533081055e+00 -2.549808263778686523e+00 2.901560544967651367e+00 -4.372099637985229492e-01 3.140978574752807617e+00 3.596764087677001953e+00
5.510029196739196777e-01 1.641810655593872070e+00 1.763537883758544922e+00 5.701869487762451172e+00 1.143130064010620117e+00 -5.965006351470947266e-01 2.719287633895874023e+00 -7.450429797172546387e-01
4.824037551879882812e-01 1.442464351654052734e+00 4.527157247066497803e-01 3.295382022857666016e+00 6.901717185974121094e-01 4.429501891136169434e-01 3.026530265808105469e+00 -2.026052236557006836e+00
-2.125392436981201172e+00 -4.515026807785034180e-01 2.535114288330078125e+00 -2.139853000640869141e+00 3.816486358642578125e+00 4.155028760433197021e-01 2.897585153579711914e+00 3.117963552474975586e+00
-1.945025682449340820e+00 4.907274842262268066e-01 -8.098601698875427246e-01 8.468616008758544922e-02 2.326095342636108398e+00 5.711395740509033203e-01 2.787192821502685547e+00 -2.566672801971435547e+00
1.420311212539672852e+00 3.570752143859863281e-01 1.771291941404342651e-01 -5.984518527984619141e-01 1.331120252609252930e+00 -1.753426074981689453e+00 1.951340556144714355e+00 -7.680417597293853760e-02
-1.127565503120422363e+00 -3.322393000125885010e-01 1.528032302856445312e+00 2.683786153793334961e+00 -1.032911896705627441e+00 1.515273302793502808e-01 3.775414943695068359e+00 4.449976980686187744e-01
-2.047188282012939453e+00 -5.341198761016130447e-03 3.766032755374908447e-01 1.153432130813598633e+00 1.231834173202514648e+00 1.800735831260681152e+00 3.061635017395019531e+00 -6.611589789390563965e-01
-4.986568093299865723e-01 -1.436241984367370605e+00 6.495934128761291504e-01 1.114332318305969238e+00 2.983927488327026367e+00 1.265879034996032715e+00 2.099257230758666992e+00 1.769608974456787109e+00
-1.493656396865844727e+00 -3.882010877132415771e-01 -5.697720646858215332e-01 7.721882462501525879e-01 2.103950023651123047e+00 1.385344624519348145e+00 3.235622644424438477e+00 1.286265373229980469e+00
-1.532196164131164551e+00 -7.449325919151306152e-01 2.360533922910690308e-01 -1.302764773368835449e+00 2.242096900939941406e+00 -1.307868361473083496e-01 2.505863904953002930e+00 -3.380179405212402344e-02
4.667447507381439209e-01 6.042377352714538574e-01 1.334796905517578125e+00 3.791989564895629883e+00 -9.489552974700927734e-01 -2.345197916030883789e+00 2.491445541381835938e+00 4.019402563571929932e-01
-1.603331685066223145e+00 3.674888908863067627e-01 1.296565771102905273e+00 2.302717924118041992e+00 -3.850376307964324951e-01 1.445316910743713379e+00 4.151364326477050781e+00 -7.335416227579116821e-02
-1.290248751640319824e+00 -5.054842308163642883e-02 2.056856632232666016e+00 2.585922479629516602e+00 5.066787600517272949e-01 2.930911183357238770e-01 2.347364425659179688e+00 1.966028094291687012e+00
-1.941507458686828613e+00 1.989450454711914062e-01 1.218907117843627930e+00 -1.441847346723079681e-02 8.693388700485229492e-01 2.244536280632019043e-01 2.510519504547119141e+00 -4.016845524311065674e-01
-3.816227018833160400e-01 4.708541333675384521e-01 2.738091707229614258e+00 4.374783039093017578e+00 -3.966693878173828125e-01 -2.687538623809814453e+00 2.119271993637084961e+00 8.921684622764587402e-01
1.247934773564338684e-01 -7.153105139732360840e-01 4.141103923320770264e-01 2.892456769943237305e+00 5.617669224739074707e-01 -4.133212268352508545e-01 2.445069313049316406e+00 9.260225296020507812e-01
-3.156904935836791992e+00 5.271239578723907471e-02 8.414167761802673340e-01 -1.602681875228881836e+00 2.753707170486450195e+00 1.703389406204223633e+00 3.890104055404663086e+00 -4.126685857772827148e-01
-4.854890406131744385e-01 -6.521046757698059082e-01 1.279600739479064941e+00 1.622366905212402344e+00 3.068619072437286377e-01 -1.582015752792358398e+00 1.783295750617980957e+00 1.842558741569519043e+00
-2.574624776840209961e+00 -2.714234292507171631e-01 -1.636236757040023804e-01 -1.385527968406677246e+00 2.381044864654541016e+00 1.250617623329162598e+00 3.540264368057250977e+00 1.068078637123107910e+00
-6.535565853118896484e-01 -1.591050624847412109e+00 3.997824490070343018e-01 1.570754885673522949e+00 1.673350095748901367e+00 7.339849472045898438e-01 2.226984500885009766e+00 2.346436023712158203e+00
-5.726476907730102539e-01 -7.546507716178894043e-01 1.265053391456604004e+00 1.517717599868774414e+00 -1.875820383429527283e-02 -1.095085382461547852e+00 2.454667091369628906e+00 2.376590520143508911e-01
1.273872554302215576e-01 -1.612174153327941895e+00 1.153088212013244629e+00 1.946467757225036621e+00 5.028578042984008789e-01 -1.002945303916931152e+00 1.850838422775268555e+00 2.057707548141479492e+00
2.287154048681259155e-01 -2.296900510787963867e+00 1.783778786659240723e+00 2.036287784576416016e+00 3.021922588348388672e+00 5.266171693801879883e-01 2.037628889083862305e+00 4.017375469207763672e+00
-1.115752100944519043e+00 5.766291618347167969e-01 1.211764454841613770e+00 -7.742087543010711670e-02 1.018912315368652344e+00 1.153330206871032715e-01 2.435658693313598633e+00 -1.265041232109069824e+00
-3.191324174404144287e-01 -2.027876853942871094e+00 2.063033103942871094e+00 1.003907918930053711e+00 1.672867178916931152e+00 9.491727687418460846e-03 2.305565595626831055e+00 4.679029941558837891e+00
-1.460922479629516602e+00 -1.207728907465934753e-01 1.132735848426818848e+00 6.005318760871887207e-01 9.884192943572998047e-01 4.045599102973937988e-01 2.630280256271362305e+00 -2.033976614475250244e-01
-2.634521961212158203e+00 3.070854544639587402e-01 5.626919865608215332e-01 -6.886749714612960815e-02 1.705356836318969727e+00 1.695003271102905273e+00 3.453101396560668945e+00 -4.195522665977478027e-01
1.080937013030052185e-01 1.052382588386535645e-02 1.180163994431495667e-01 3.804419279098510742e+00 9.156441688537597656e-02 -6.081309914588928223e-01 3.049296617507934570e+00 5.006206631660461426e-01
-2.602387905120849609e+00 9.155955314636230469e-01 1.231323361396789551e+00 1.701943039894104004e+00 9.133768677711486816e-01 1.810341835021972656e+00 2.667546033859252930e+00 -2.745631635189056396e-01
-1.273818016052246094e-01 -2.538902521133422852e+00 8.422830104827880859e-01 7.423798441886901855e-01 2.831502199172973633e+00 1.059142708778381348e+00 2.853317975997924805e+00 3.561610460281372070e+00
-1.517417430877685547e+00 3.482320308685302734e-01 6.184593439102172852e-01 2.624984979629516602e+00 -1.097761154174804688e+00 4.909846559166908264e-02 4.288328170776367188e+00 -2.876229882240295410e-01
-1.482620239257812500e+00 4.053201079368591309e-01 4.211453199386596680e-01 1.225008964538574219e+00 1.447133183479309082e+00 1.033341526985168457e+00 2.706548929214477539e+00 -1.157496213912963867e+00
-2.461103200912475586e+00 -2.178704023361206055e+00 3.603782415390014648e+00 -2.187500000000000000e+00 3.085126876831054688e+00 -1.214823007583618164e+00 2.088587999343872070e+00 1.575374245643615723e+00
1.109133601188659668e+00 -1.333346962928771973e-02 -6.199294328689575195e-01 4.782440960407257080e-01 2.049522399902343750e+00 -3.191792666912078857e-01 1.720765590667724609e+00 1.594004034996032715e+00
-1.056116342544555664e+00 -4.281491637229919434e-01 1.218068480491638184e+00 3.190701961517333984e+00 -4.653127491474151611e-01 -1.257740974426269531e+00 2.479767560958862305e+00 -2.229475528001785278e-01
-1.524719357490539551e+00 2.825667858123779297e-01 1.912244319915771484e+00 -3.498849153518676758e+00 3.080836296081542969e+00 -7.634351253509521484e-01 3.560667753219604492e+00 3.028875112533569336e+00
-2.348646640777587891e+00 -9.410526156425476074e-01 2.005751609802246094e+00 -5.328996181488037109e-01 9.803599119186401367e-01 2.623416185379028320e-01 2.679569721221923828e+00 2.576543807983398438e+00
-2.874388456344604492e+00 -2.324108839035034180e+00 3.996109247207641602e+00 -1.839825153350830078e+00 2.923842906951904297e+00 -2.313530296087265015e-01 2.407078981399536133e+00 8.290302753448486328e-01
3.279834389686584473e-01 4.465169459581375122e-02 9.349082708358764648e-01 2.742481708526611328e+00 2.055715084075927734e+00 1.682232856750488281e+00 2.723108530044555664e+00 -2.458534479141235352e+00
3.496991097927093506e-01 4.603923559188842773e-01 9.535657763481140137e-01 -6.017476916313171387e-01 2.090846776962280273e+00 -1.189764618873596191e+00 1.524830698966979980e+00 -7.096933126449584961e-01
-2.388041734695434570e+00 5.866581797599792480e-01 2.103780269622802734e+00 -1.407729387283325195e+00 1.894420504570007324e+00 1.102174162864685059e+00 2.553948402404785156e+00 7.282981276512145996e-01
1.032624721527099609e+00 3.488247096538543701e-01 1.914661407470703125e+00 4.064041137695312500e+00 -6.975104212760925293e-01 -3.553390979766845703e+00 2.161332607269287109e+00 1.305571436882019043e+00
-1.022212147712707520e+00 4.534067511558532715e-01 2.229690551757812500e+00 2.224355489015579224e-01 2.039956808090209961e+00 9.630018472671508789e-01 2.066354751586914062e+00 1.047712683677673340e+00
-1.515588164329528809e+00 -1.521403789520263672e+00 -3.284543752670288086e-02 2.444744825363159180e+00 -6.910858154296875000e-01 -2.072646379470825195e+00 3.187076807022094727e+00 -4.958626031875610352e-01
-2.161155939102172852e+00 -7.889322638511657715e-01 2.856737613677978516e+00 -2.118002176284790039e+00 3.663372755050659180e+00 5.714425444602966309e-01 3.006876945495605469e+00 2.564912319183349609e+00
-2.328469514846801758e+00 7.798241972923278809e-01 1.703670024871826172e+00 -3.821403264999389648e+00 3.597893238067626953e+00 2.488892525434494019e-01 3.887120485305786133e+00 1.943754553794860840e+00
-1.634540557861328125e+00 -1.039587497711181641e+00 1.464376330375671387e+00 2.915529251098632812e+00 -5.957120656967163086e-01 -5.947782397270202637e-01 2.889325380325317383e+00 6.371337175369262695e-01
-6.510114669799804688e-01 -1.136327743530273438e+00 1.395650982856750488e+00 3.017730712890625000e+00 -1.211943626403808594e-01 -1.418711781501770020e+00 2.516396045684814453e+00 4.464726150035858154e-01
6.805932521820068359e-01 2.033891081809997559e-01 -3.284857571125030518e-01 8.475334197282791138e-02 1.553009986877441406e+00 -1.182749390602111816e+00 2.047149658203125000e+00 -1.805159211158752441e+00
-1.787105500698089600e-01 -5.894241333007812500e-01 9.341865777969360352e-01 1.489579439163208008e+00 1.835169196128845215e+00 1.365230798721313477e+00 2.340795516967773438e+00 -1.509364008903503418e+00
-2.261899113655090332e-01 7.387248426675796509e-02 7.018940448760986328e-01 3.713041305541992188e+00 1.214449759572744370e-02 -2.477313429117202759e-01 2.522859573364257812e+00 -9.690740704536437988e-02
2.182430773973464966e-01 -4.551471471786499023e-01 2.950698733329772949e-01 3.761726140975952148e+00 -6.189436912536621094e-01 -2.255157232284545898e+00 2.980365514755249023e+00 -1.263464570045471191e+00
-1.028525114059448242e+00 -5.961515307426452637e-01 1.593003988265991211e+00 2.558520793914794922e+00 -2.722276747226715088e-01 -1.166795730590820312e+00 2.423438549041748047e+00 6.871696710586547852e-01
8.489087820053100586e-01 3.369896439835429192e-03 5.493322014808654785e-01 1.800266265869140625e+00 6.693545579910278320e-01 -1.457955598831176758e+00 2.090061187744140625e+00 -5.504027605056762695e-01
-2.682520151138305664e+00 -1.182241439819335938e+00 2.942535638809204102e+00 -2.270103216171264648e+00 3.877115726470947266e+00 3.428264558315277100e-01 2.883452415466308594e+00 1.751865863800048828e+00
-1.581803917884826660e+00 8.195978403091430664e-01 1.624925971031188965e+00 -7.632307708263397217e-02 2.196289300918579102e+00 1.131665349006652832e+00 2.155678272247314453e+00 7.906413078308105469e-01
1.981570199131965637e-02 -2.414005994796752930e-01 3.578242361545562744e-01 2.254059314727783203e+00 -1.247444301843643188e-01 -2.115748405456542969e+00 2.278578042984008789e+00 -2.240997403860092163e-01
-1.753737449645996094e+00 -6.848700642585754395e-01 1.091016530990600586e+00 -8.268617391586303711e-01 1.790210962295532227e+00 -7.766126841306686401e-02 2.541544675827026367e+00 7.704855799674987793e-01
2.327360361814498901e-01 1.263564974069595337e-01 2.030705958604812622e-01 1.035959482192993164e+00 1.511720418930053711e-01 -8.224199526011943817e-03 3.330521821975708008e+00 -1.199708819389343262e+00
-9.290181398391723633e-01 -1.214780509471893311e-01 2.972185611724853516e-01 -2.303309738636016846e-02 2.142672300338745117e+00 8.681693673133850098e-01 2.145788192749023438e+00 -4.619023799896240234e-01
4.553657174110412598e-01 8.238344192504882812e-01 7.492246031761169434e-01 2.710825920104980469e+00 4.391865134239196777e-01 2.804715633392333984e-01 2.309531927108764648e+00 -6.091697216033935547e-01
7.104385495185852051e-01 1.308940052986145020e+00 1.230338335037231445e+00 4.982697963714599609e+00 1.780983209609985352e-01 -8.560094237327575684e-01 2.891172647476196289e+00 -4.838685095310211182e-01
-3.780023813247680664e+00 -1.164736151695251465e+00 2.108371257781982422e+00 -1.282238841056823730e+00 9.508996009826660156e-01 -1.933724641799926758e+00 2.290225267410278320e+00 6.966394782066345215e-01
-3.193232119083404541e-01 -1.389885425567626953e+00 1.159592792391777039e-01 1.574511408805847168e+00 1.072789311408996582e+00 -8.877145051956176758e-01 2.307724475860595703e+00 -1.027089715003967285e+00
-7.066177576780319214e-02 3.598276674747467041e-01 1.666269302368164062e-01 2.449736148118972778e-01 1.380470156669616699e+00 -4.269108176231384277e-01 2.099429607391357422e+00 -7.276623249053955078e-01
-1.083693265914916992e+00 -2.090266197919845581e-01 7.984113097190856934e-01 -8.487067222595214844e-01 9.872539043426513672e-01 -1.039754033088684082e+00 2.284579753875732422e+00 -1.991427689790725708e-02
-1.397405505180358887e+00 6.845952868461608887e-01 -8.292458653450012207e-01 5.787872076034545898e-01 1.043967485427856445e+00 5.139727592468261719e-01 3.454718351364135742e+00 2.244575023651123047e+00
-7.102737575769424438e-02 -5.343545600771903992e-02 1.022936105728149414e+00 2.118095874786376953e+00 9.956720471382141113e-01 4.699379205703735352e-01 2.051651477813720703e+00 1.361058950424194336e+00
2.399267435073852539e+00 1.640744447708129883e+00 -8.782332539558410645e-01 -3.552565872669219971e-01 1.619562625885009766e+00 -2.347476720809936523e+00 2.233150720596313477e+00 -7.944574952125549316e-01
-1.787925243377685547e+00 -1.608841121196746826e-01 1.951747894287109375e+00 -1.954384922981262207e+00 2.594023942947387695e+00 8.719341456890106201e-02 2.843111991882324219e+00 2.419771432876586914e+00
2.948474586009979248e-01 -1.502968519926071167e-01 5.320972204208374023e-01 2.160870552062988281e+00 9.138237237930297852e-01 1.644748300313949585e-01 2.233601093292236328e+00 1.038166046142578125e+00
-1.220641285181045532e-01 -3.209180831909179688e-01 5.755002498626708984e-01 2.306625604629516602e+00 1.171455144882202148e+00 5.139550566673278809e-01 2.322211980819702148e+00 -9.459810256958007812e-01
5.089208483695983887e-01 1.642280817031860352e+00 1.898297786712646484e+00 5.284164428710937500e+00 8.171444535255432129e-01 6.083836406469345093e-02 2.666076660156250000e+00 -5.328356623649597168e-01
-2.002814292907714844e+00 1.035254001617431641e+00 1.807871937751770020e+00 -1.841869592666625977e+00 1.381339669227600098e+00 -3.730735778808593750e-01 2.997377634048461914e+00 2.843039035797119141e+00
4.941218197345733643e-01 -3.486000373959541321e-02 5.198392271995544434e-02 3.408843994140625000e+00 4.991928040981292725e-01 -1.438321232795715332e+00 2.552613019943237305e+00 -4.303505718708038330e-01
-7.570332288742065430e-01 -5.497647523880004883e-01 1.134287953376770020e+00 9.306835383176803589e-02 1.778921842575073242e+00 -3.764950037002563477e-01 1.943232178688049316e+00 1.558319449424743652e+00
-1.089440345764160156e+00 -4.805911481380462646e-01 1.302234083414077759e-01 5.940572023391723633e-01 1.866121649742126465e+00 9.194540381431579590e-01 2.237619638442993164e+00 -1.035209670662879944e-01
1.176370024681091309e+00 2.206494957208633423e-01 8.525524139404296875e-01 3.359718799591064453e+00 -1.094047501683235168e-01 -1.683776497840881348e+00 2.562024593353271484e+00 -4.531214237213134766e-01
-5.982226729393005371e-01 -6.824913620948791504e-01 9.057115316390991211e-01 2.659435033798217773e+00 -5.846057087182998657e-02 -1.314887762069702148e+00 2.538828849792480469e+00 4.834409058094024658e-01
-8.370930552482604980e-01 -5.240616798400878906e-01 2.606451511383056641e-01 1.413956165313720703e+00 1.585121631622314453e+00 4.561631977558135986e-01 2.309276819229125977e+00 1.122748374938964844e+00
-2.526839494705200195e+00 3.054496049880981445e-01 2.299747705459594727e+00 -2.988672733306884766e+00 3.101124763488769531e+00 1.072273477911949158e-01 3.322335004806518555e+00 2.081664800643920898e+00
5.740543603897094727e-01 -8.729488849639892578e-01 2.231803834438323975e-01 2.829613447189331055e+00 1.201828122138977051e+00 -8.076162338256835938e-01 2.015518903732299805e+00 -1.712481528520584106e-01
-1.364002823829650879e+00 -6.728293895721435547e-01 1.967316031455993652e+00 1.101267337799072266e-01 7.238933444023132324e-01 -1.492141962051391602e+00 1.649325728416442871e+00 1.869783043861389160e+00
3.345024287700653076e-01 5.001113414764404297e-01 9.328497946262359619e-02 1.662652492523193359e+00 7.596315741539001465e-01 -1.066515445709228516e-01 2.969529867172241211e+00 -1.014268517494201660e+00
6.795986741781234741e-02 -2.737325727939605713e-01 5.817618370056152344e-01 1.199057221412658691e+00 1.013502359390258789e+00 -1.067200064659118652e+00 1.984547615051269531e+00 6.480917800217866898e-03
-2.045099735260009766e+00 5.049724578857421875e-01 1.788318753242492676e-01 -1.582191824913024902e+00 2.124441385269165039e+00 7.795673608779907227e-01 3.190253019332885742e+00 -3.167824149131774902e-01
5.858151316642761230e-01 8.535815477371215820e-01 1.004557013511657715e+00 2.611105918884277344e+00 -5.429578199982643127e-02 -1.677754759788513184e+00 2.598219633102416992e+00 -4.046137034893035889e-01
-2.637760937213897705e-01 1.358413338661193848e+00 1.535929918289184570e+00 4.465107440948486328e+00 -9.355316311120986938e-02 4.626764953136444092e-01 3.211137771606445312e+00 -7.788107991218566895e-01
3.663260042667388916e-01 6.438504904508590698e-02 1.137284874916076660e+00 1.973815560340881348e+00 6.531043648719787598e-01 -7.281675338745117188e-01 1.686907052993774414e+00 1.228865385055541992e+00
-1.864634156227111816e+00 -4.219041764736175537e-01 1.591912746429443359e+00 -2.267695426940917969e+00 3.250042915344238281e+00 -1.120144277811050415e-01 2.952686071395874023e+00 1.470114350318908691e+00
-1.364626288414001465e+00 -9.081588387489318848e-01 6.942539215087890625e-01 9.598024487495422363e-01 1.530781745910644531e+00 1.341147422790527344e+00 2.721836090087890625e+00 1.408187508583068848e+00
-7.523186206817626953e-01 3.830221593379974365e-01 -1.031565144658088684e-01 4.338903725147247314e-01 1.665188312530517578e+00 3.342244029045104980e-01 2.399786710739135742e+00 -8.849976658821105957e-01
2.868102490901947021e-01 8.552168607711791992e-01 2.039592981338500977e+00 4.495924472808837891e+00 6.619383096694946289e-01 -1.541350036859512329e-02 2.550770282745361328e+00 -6.598558425903320312e-01
1.012485504150390625e+00 7.150167822837829590e-01 2.040147066116333008e+00 9.667966365814208984e-01 -9.346089325845241547e-03 -1.366653323173522949e+00 2.161604404449462891e+00 2.016947746276855469e+00
7.523195147514343262e-01 3.325081765651702881e-01 8.862051963806152344e-01 3.759837150573730469e+00 -4.818973541259765625e-01 -2.543692111968994141e+00 2.613430976867675781e+00 7.641920447349548340e-01
-1.075584530830383301e+00 -5.356682538986206055e-01 7.483248710632324219e-01 1.315142512321472168e+00 1.525687932968139648e+00 1.598290085792541504e+00 2.490911006927490234e+00 2.255220651626586914e+00
1.117975592613220215e+00 -9.290280938148498535e-02 3.792842328548431396e-01 3.754689931869506836e+00 2.118403017520904541e-01 -1.516174435615539551e+00 2.840112924575805664e+00 -3.999706804752349854e-01
-1.831921219825744629e+00 -4.470336437225341797e-01 6.837501525878906250e-01 -1.895351648330688477e+00 2.810708522796630859e+00 -4.306228458881378174e-02 2.572173118591308594e+00 1.197278499603271484e+00
1.418752819299697876e-01 3.228297829627990723e-01 -4.983151257038116455e-01 9.567010402679443359e-01 1.674562573432922363e+00 -6.589301824569702148e-01 2.520365953445434570e+00 -1.249968528747558594e+00
5.565421581268310547e-01 -3.048128485679626465e-01 3.709316015243530273e+00 2.516788959503173828e+00 1.463163852691650391e+00 1.464677453041076660e-01 1.333663940429687500e+00 2.668416023254394531e+00
1.329314231872558594e+00 1.373096823692321777e+00 6.759537458419799805e-01 6.977046132087707520e-01 2.201585292816162109e+00 -4.642801582813262939e-01 2.205572843551635742e+00 -2.206722974777221680e+00
-3.380605280399322510e-01 1.041652917861938477e+00 1.308688759803771973e+00 2.979054212570190430e+00 9.377580285072326660e-01 2.911932766437530518e-01 2.197573661804199219e+00 -4.122154116630554199e-01
-7.170336842536926270e-01 -2.092539519071578979e-01 4.762309789657592773e-01 3.865703642368316650e-01 8.919209837913513184e-01 -7.998439073562622070e-01 2.642890691757202148e+00 -3.724375367164611816e-01
-1.339948058128356934e+00 3.650308847427368164e-01 -1.614800840616226196e-01 4.210038483142852783e-01 1.496459841728210449e+00 3.521972596645355225e-01 2.578921079635620117e+00 -9.392312169075012207e-01
-1.614623330533504486e-02 7.110975384712219238e-01 7.096239924430847168e-01 9.007474780082702637e-01 8.645663261413574219e-01 -6.750717163085937500e-01 1.945551037788391113e+00 -4.026918485760688782e-02
-3.209919929504394531e-01 -5.152407884597778320e-01 4.392590820789337158e-01 1.737264037132263184e+00 8.680467009544372559e-01 -9.573309421539306641e-01 2.201614141464233398e+00 -2.106018960475921631e-01
-9.929100275039672852e-01 4.239718616008758545e-01 7.735772728919982910e-01 2.518558263778686523e+00 -5.464967489242553711e-01 3.782161772251129150e-01 3.265310049057006836e+00 -2.020706683397293091e-01
9.725536406040191650e-02 -7.672103121876716614e-03 6.678481698036193848e-01 2.255233079195022583e-01 1.140187025070190430e+00 -5.170885324478149414e-01 2.227014541625976562e+00 6.863761544227600098e-01
-4.814524650573730469e-01 -4.772012829780578613e-01 1.054817318916320801e+00 1.289154648780822754e+00 1.530440092086791992e+00 4.762425720691680908e-01 2.289059400558471680e+00 1.581823945045471191e+00
-3.704639375209808350e-01 -3.449507355690002441e-01 7.760382294654846191e-01 -1.497723162174224854e-02 1.071374893188476562e+00 -9.756554961204528809e-01 2.049340009689331055e+00 8.865365982055664062e-01
9.547229856252670288e-02 1.460112631320953369e-01 9.174205064773559570e-01 1.231552720069885254e+00 1.041506528854370117e-01 -8.957273364067077637e-01 2.450268507003784180e+00 -6.132028698921203613e-01
-2.158448219299316406e+00 2.198493480682373047e-02 1.692120909690856934e+00 -3.016546070575714111e-01 1.563167214393615723e+00 1.020404696464538574e+00 2.036329269409179688e+00 1.767897009849548340e+00
-4.158399403095245361e-01 -8.833023905754089355e-01 -1.852298714220523834e-02 1.366199254989624023e+00 1.530360102653503418e+00 6.670026779174804688e-01 2.270919799804687500e+00 1.998449206352233887e+00
4.325211420655250549e-02 1.602490395307540894e-01 1.000906944274902344e+00 1.771259546279907227e+00 3.701575994491577148e-01 -1.005655169486999512e+00 2.246723651885986328e+00 5.092349648475646973e-01
-7.233846187591552734e-01 -7.773955464363098145e-01 7.718519568443298340e-01 5.523866415023803711e-01 1.146401882171630859e+00 -7.096480131149291992e-01 1.966996550559997559e+00 1.895623087882995605e+00
-8.018812537193298340e-01 -3.536345958709716797e-01 1.658438563346862793e+00 1.366721272468566895e+00 -2.409534752368927002e-01 -1.238346695899963379e+00 2.137881040573120117e+00 1.061512589454650879e+00
3.440437316894531250e-01 -3.461886942386627197e-02 1.014681458473205566e+00 2.662276268005371094e+00 -5.033709481358528137e-02 -1.982352495193481445e+00 2.292800664901733398e+00 1.117049694061279297e+00
5.787456035614013672e-01 -1.097293347120285034e-01 8.101794123649597168e-01 2.912890195846557617e+00 9.477636218070983887e-01 -7.086891531944274902e-01 2.087850809097290039e+00 1.092797994613647461e+00
4.614693224430084229e-01 1.504079997539520264e-01 1.140647768974304199e+00 3.226334571838378906e+00 -6.310228705406188965e-01 -1.555835008621215820e+00 2.308503627777099609e+00 5.847661942243576050e-02
-1.902320146560668945e+00 -3.077234625816345215e-01 2.451759576797485352e+00 -2.284223556518554688e+00 3.325012207031250000e+00 -4.870185628533363342e-02 2.651473760604858398e+00 1.218692660331726074e+00
-7.463603019714355469e-01 -1.057486414909362793e+00 4.880959093570709229e-01 2.412393391132354736e-01 1.908391475677490234e+00 5.747190713882446289e-01 2.465726375579833984e+00 2.037488460540771484e+00
3.369369208812713623e-01 1.703190207481384277e-01 6.336024999618530273e-01 8.074550628662109375e-01 7.272223830223083496e-01 -1.875940442085266113e+00 2.185478925704956055e+00 7.577014714479446411e-02
9.174814820289611816e-02 5.183129906654357910e-01 1.044486165046691895e+00 2.166975289583206177e-01 1.201282978057861328e+00 -1.423255205154418945e+00 2.027771234512329102e+00 3.926243633031845093e-02
1.619318723678588867e-01 -5.466819182038307190e-02 1.153479576110839844e+00 2.552486181259155273e+00 -6.934213042259216309e-01 -2.226952552795410156e+00 2.260414600372314453e+00 8.883947730064392090e-01
-6.074656844139099121e-01 -1.097819685935974121e+00 9.419841170310974121e-01 7.195701599121093750e-01 1.634675502777099609e+00 1.702342927455902100e-01 2.239629030227661133e+00 1.977572679519653320e+00
6.891446113586425781e-01 4.948997497558593750e-01 1.507393121719360352e+00 3.412322521209716797e+00 5.499852299690246582e-01 -3.403857350349426270e-01 2.282740116119384766e+00 5.022124648094177246e-01
-4.349228739738464355e-01 7.857064008712768555e-01 7.698146700859069824e-01 2.765744924545288086e+00 -2.173800468444824219e-01 2.316024005413055420e-01 3.466504812240600586e+00 -6.075850129127502441e-01
9.185763597488403320e-01 5.470964908599853516e-01 5.036694407463073730e-01 1.564727425575256348e+00 1.269440650939941406e+00 -5.488316416740417480e-01 2.444982767105102539e+00 2.190298140048980713e-01
2.643038034439086914e-01 -4.749999940395355225e-01 9.102179408073425293e-01 7.987247109413146973e-01 1.352044343948364258e+00 -7.142632007598876953e-01 2.203087329864501953e+00 1.207778215408325195e+00
-9.898927807807922363e-01 2.691014856100082397e-02 1.017976522445678711e+00 -1.272391676902770996e+00 2.328432559967041016e+00 -6.751708388328552246e-01 2.448955059051513672e+00 4.289594292640686035e-01
-7.491427659988403320e-01 8.192105889320373535e-01 1.162805199623107910e+00 -3.834781050682067871e-01 1.104412436485290527e+00 -8.805150538682937622e-02 1.795176625251770020e+00 6.448069810867309570e-01
9.459945559501647949e-01 2.497743070125579834e-01 5.987714529037475586e-01 3.265932083129882812e+00 4.192215800285339355e-01 -1.238644838333129883e+00 2.452206850051879883e+00 -3.191179335117340088e-01
-1.585368752479553223e+00 -1.683617383241653442e-01 7.788270711898803711e-01 -6.626409888267517090e-01 1.463942050933837891e+00 5.334057211875915527e-01 2.658620595932006836e+00 1.623726248741149902e+00
-5.794026255607604980e-01 -5.869032740592956543e-01 1.854153037071228027e+00 1.399459719657897949e+00 4.173394441604614258e-01 -1.379144549369812012e+00 1.741942405700683594e+00 1.925362944602966309e+00
-1.258266210556030273e+00 -3.999570012092590332e-01 1.133835315704345703e+00 -2.160153865814208984e+00 1.927497506141662598e+00 -3.485054671764373779e-01 2.583607435226440430e+00 2.281174182891845703e+00
3.438237309455871582e-01 3.892685472965240479e-02 3.336145877838134766e-01 2.617632389068603516e+00 6.792078614234924316e-01 -8.406954407691955566e-01 2.605889081954956055e+00 -1.973185539245605469e-01
-5.585407018661499023e-01 3.251675665378570557e-01 4.216293990612030029e-01 2.224075317382812500e+00 4.149769246578216553e-02 -7.453311979770660400e-02 2.881372928619384766e+00 -2.952367067337036133e-01
-1.008869171142578125e+00 -1.507291942834854126e-01 1.073859333992004395e+00 -5.990564823150634766e-01 1.276455163955688477e+00 -1.866952776908874512e-01 2.210480928421020508e+00 5.300813913345336914e-01
6.837661862373352051e-01 1.351944684982299805e+00 4.806997254490852356e-02 4.140040576457977295e-01 3.284063339233398438e-01 -1.204930186271667480e+00 2.880057573318481445e+00 -2.367648124694824219e+00
1.106088832020759583e-01 5.265493988990783691e-01 4.603753089904785156e-01 -1.935814619064331055e-01 1.344443202018737793e+00 -1.155628561973571777e+00 2.199175834655761719e+00 -9.369605183601379395e-01
4.104163348674774170e-01 2.662717401981353760e-01 8.158324956893920898e-01 2.371273279190063477e+00 -5.266942977905273438e-01 -1.507372617721557617e+00 2.523005485534667969e+00 1.006852313876152039e-01
-5.357704162597656250e-01 3.838838338851928711e-01 1.118395447731018066e+00 3.728083074092864990e-01 1.280028343200683594e+00 -2.026447504758834839e-01 2.241658687591552734e+00 8.943736553192138672e-02
1.230852842330932617e+00 4.051139354705810547e-01 -4.507911577820777893e-02 4.769756495952606201e-01 2.295901298522949219e+00 -2.343658685684204102e+00 1.732146263122558594e+00 -1.509408712387084961e+00
-1.385155916213989258e+00 5.332309007644653320e-01 1.346876978874206543e+00 2.146324068307876587e-01 1.060787558555603027e+00 1.617428213357925415e-01 2.551599740982055664e+00 -4.209329485893249512e-01
-1.650918960571289062e+00 6.448329985141754150e-02 1.166616797447204590e+00 -3.297829926013946533e-01 1.546361804008483887e+00 4.752229750156402588e-01 2.269051313400268555e+00 8.072152137756347656e-01
-9.454398155212402344e-01 1.405063271522521973e-01 8.435067534446716309e-01 -8.746855854988098145e-01 2.151576042175292969e+00 4.646328389644622803e-01 2.421260356903076172e+00 1.192418217658996582e+00
-9.396625757217407227e-01 4.110765755176544189e-01 8.896828889846801758e-01 5.942124724388122559e-01 1.401268959045410156e+00 5.714022517204284668e-01 2.221963644027709961e+00 -4.744925200939178467e-01
1.309574693441390991e-01 1.560267806053161621e-01 7.345319390296936035e-01 2.398518562316894531e+00 1.338062882423400879e-01 -1.550267100334167480e+00 2.330041646957397461e+00 3.555698692798614502e-01
1.026538610458374023e+00 6.097007989883422852e-01 1.935122758150100708e-01 7.075703889131546021e-02 2.041207790374755859e+00 -1.937939882278442383e+00 1.942867159843444824e+00 -1.145720958709716797e+00
7.081589102745056152e-01 7.875438332557678223e-01 3.657200038433074951e-01 1.123978018760681152e+00 7.461486458778381348e-01 -1.574118256568908691e+00 2.234173774719238281e+00 -7.560055255889892578e-01
-2.628154158592224121e-01 1.336187958717346191e+00 1.009623050689697266e+00 2.019979953765869141e+00 3.463913798332214355e-01 -1.080831512808799744e-02 2.217848539352416992e+00 -6.453909277915954590e-01
1.304893195629119873e-01 -6.839653849601745605e-02 2.852408289909362793e-01 1.755454540252685547e+00 3.758451640605926514e-01 -1.966458439826965332e+00 2.130251884460449219e+00 -7.157911062240600586e-01
-6.847029924392700195e-01 -3.192707002162933350e-01 5.976629853248596191e-01 1.015488743782043457e+00 1.003338456153869629e+00 -6.626725196838378906e-01 2.252959728240966797e+00 7.134697437286376953e-01
-1.865808129310607910e+00 8.680514246225357056e-02 2.240758895874023438e+00 -2.062698125839233398e+00 2.788384437561035156e+00 6.038601696491241455e-02 2.732160329818725586e+00 1.769307851791381836e+00
-1.166862368583679199e+00 -9.074954986572265625e-01 1.181100487709045410e+00 -3.993488252162933350e-01 1.654765605926513672e+00 1.840876191854476929e-01 2.590943336486816406e+00 2.635815382003784180e+00
-1.245323061943054199e+00 -1.425421088933944702e-01 1.662262678146362305e+00 3.438059091567993164e-01 4.637236893177032471e-01 -6.298839449882507324e-01 1.971284389495849609e+00 1.249259710311889648e+00
-5.352171659469604492e-01 3.271063566207885742e-01 1.275096654891967773e+00 -1.938167214393615723e+00 2.459430217742919922e+00 -7.940881252288818359e-01 2.175409555435180664e+00 1.206511378288269043e+00
-5.356846451759338379e-01 -5.571101307868957520e-01 4.867040216922760010e-01 1.422173142433166504e+00 7.712631821632385254e-01 -1.196961045265197754e+00 2.168150186538696289e+00 -1.101341247558593750e-01
-1.743214607238769531e+00 3.886358439922332764e-01 1.962925791740417480e+00 -1.374450564384460449e+00 1.172852158546447754e+00 -3.170862793922424316e-01 2.211458444595336914e+00 1.652831673622131348e+00
7.746477723121643066e-01 6.850744038820266724e-02 1.386801838874816895e+00 2.706218481063842773e+00 -3.845179080963134766e-02 -1.576944589614868164e+00 1.987437605857849121e+00 6.624194383621215820e-01
-2.823104262351989746e-01 -5.490469560027122498e-02 7.159997820854187012e-01 2.133687734603881836e+00 3.157435730099678040e-02 -1.374047636985778809e+00 2.234194278717041016e+00 -4.324700236320495605e-01
-5.191360712051391602e-01 1.142406687140464783e-01 6.612470746040344238e-01 2.022630214691162109e+00 -1.559460312128067017e-01 -2.523455582559108734e-02 3.045395135879516602e+00 -1.504804641008377075e-01
6.416645646095275879e-01 1.882879287004470825e-01 2.825556099414825439e-01 1.967542767524719238e-01 2.539221525192260742e+00 -2.422758817672729492e+00 1.809949755668640137e+00 -1.618147015571594238e+00
3.808967173099517822e-01 2.633038461208343506e-01 7.758588790893554688e-01 -2.861663103103637695e-01 1.682060122489929199e+00 -1.323897957801818848e+00 2.004186391830444336e+00 -2.031931877136230469e-01
-1.478657007217407227e+00 -7.343628257513046265e-02 1.601022958755493164e+00 -2.176519632339477539e+00 2.698001146316528320e+00 1.365309059619903564e-01 2.550282955169677734e+00 1.398808002471923828e+00
-2.506990432739257812e-01 -2.369367331266403198e-01 7.598389387130737305e-01 1.429665088653564453e+00 2.709341645240783691e-01 -1.514274835586547852e+00 2.369791030883789062e+00 1.032524928450584412e-01
-1.663449048995971680e+00 -8.453628979623317719e-03 1.278950452804565430e+00 -2.339274883270263672e+00 3.105371475219726562e+00 -6.553950160741806030e-02 2.912210464477539062e+00 1.329522728919982910e+00
3.056274354457855225e-01 1.541564464569091797e-01 2.885480821132659912e-01 6.765446662902832031e-01 1.278846621513366699e+00 -9.835276603698730469e-01 2.251495361328125000e+00 -2.958892472088336945e-02
-4.147298336029052734e-01 1.093680784106254578e-02 7.772203087806701660e-01 2.708883285522460938e+00 -2.167237848043441772e-01 -8.362381458282470703e-01 2.705833435058593750e+00 -1.056903600692749023e-02
-1.887658983469009399e-01 -2.635942101478576660e-01 1.151973366737365723e+00 2.495377540588378906e+00 -2.535626105964183807e-02 -1.203131794929504395e+00 2.470150470733642578e+00 -1.755315996706485748e-02
-8.085030317306518555e-01 -1.638217419385910034e-01 6.073241233825683594e-01 -1.174543261528015137e+00 2.056590318679809570e+00 -3.607682287693023682e-01 2.274241924285888672e+00 2.255151569843292236e-01
-1.442987918853759766e+00 -4.730378463864326477e-02 1.249256134033203125e+00 -1.878695845603942871e+00 2.773293972015380859e+00 3.064739704132080078e-01 2.615427494049072266e+00 1.741722106933593750e+00
-1.642293572425842285e+00 1.062456011772155762e+00 1.373719692230224609e+00 -2.200321435928344727e+00 1.684301733970642090e+00 -1.244915202260017395e-01 2.847800970077514648e+00 2.085163354873657227e+00
2.981849908828735352e-01 4.199542105197906494e-01 8.476697802543640137e-01 2.422805070877075195e+00 4.363640546798706055e-01 -4.012479484081268311e-01 1.978833556175231934e+00 6.224693655967712402e-01
-6.661149263381958008e-01 -2.768557965755462646e-01 1.368825674057006836e+00 1.794109821319580078e+00 3.654247224330902100e-01 6.778015196323394775e-02 2.231216907501220703e+00 1.338109850883483887e+00
-4.216217696666717529e-01 -3.138214051723480225e-01 4.171944856643676758e-01 4.346022605895996094e-01 1.135423302650451660e+00 -1.054094314575195312e+00 2.211036443710327148e+00 -1.982502490282058716e-01
1.459531903266906738e+00 1.148204088211059570e+00 -6.609366834163665771e-02 2.959057688713073730e-02 1.492724180221557617e+00 -2.064960002899169922e+00 2.206098079681396484e+00 -3.691497147083282471e-01
1.472676753997802734e+00 1.085836887359619141e+00 -1.702366918325424194e-01 -7.250434160232543945e-02 1.837007403373718262e+00 -1.882520318031311035e+00 2.496837139129638672e+00 -3.982478380203247070e-01
5.970184206962585449e-01 -2.704683244228363037e-01 4.142236113548278809e-01 1.370187640190124512e+00 6.017544865608215332e-01 -2.554588794708251953e+00 2.321386814117431641e+00 -4.599033892154693604e-01
-1.518601298332214355e+00 -4.336988329887390137e-01 1.723018527030944824e+00 -2.389632940292358398e+00 3.097346305847167969e+00 -2.202532887458801270e-01 2.772297620773315430e+00 1.567834258079528809e+00
-4.586018919944763184e-01 4.298155307769775391e-01 6.304543614387512207e-01 1.889037370681762695e+00 1.579113155603408813e-01 9.246442466974258423e-02 2.660391807556152344e+00 -1.352744847536087036e-01
-8.591651320457458496e-01 -4.605711698532104492e-01 5.297069549560546875e-01 -5.825499072670936584e-02 1.963744401931762695e+00 5.791501998901367188e-01 2.438753366470336914e+00 1.121032953262329102e+00
1.871652364730834961e+00 4.279172718524932861e-01 2.550521492958068848e-01 -7.663357853889465332e-01 2.053467273712158203e+00 -2.831961870193481445e+00 2.577172517776489258e+00 -6.684041023254394531e-01
-1.873418807983398438e+00 1.040574908256530762e+00 1.387283921241760254e+00 -2.039138793945312500e+00 2.200436592102050781e+00 4.002839028835296631e-01 2.372094869613647461e+00 1.460225701332092285e+00
-1.366632819175720215e+00 -8.631442785263061523e-01 1.597678422927856445e+00 -8.944614529609680176e-01 1.971690297126770020e+00 -2.950764596462249756e-01 1.911181211471557617e+00 9.629899859428405762e-01
1.443959623575210571e-01 -1.206231266260147095e-01 4.086422324180603027e-01 1.496407151222229004e+00 8.986935019493103027e-01 -3.282003104686737061e-01 2.431328535079956055e+00 -5.294553637504577637e-01
-6.799461841583251953e-01 -2.818926870822906494e-01 7.443918585777282715e-01 -5.110893845558166504e-01 1.543179631233215332e+00 -5.080912113189697266e-01 2.453376293182373047e+00 1.311559081077575684e+00
-1.614003896713256836e+00 3.454692065715789795e-01 1.134881377220153809e+00 -5.931289196014404297e-01 1.240618586540222168e+00 5.909289717674255371e-01 2.469794034957885742e+00 -9.144794940948486328e-02
-4.568059742450714111e-01 -2.977537214756011963e-01 7.639806866645812988e-01 1.094869375228881836e-01 1.931376338005065918e+00 -2.522170245647430420e-01 1.971052765846252441e+00 3.008092045783996582e-01
9.109710454940795898e-01 8.092923760414123535e-01 2.008074522018432617e-01 9.065824151039123535e-01 1.233608603477478027e+00 -1.322251677513122559e+00 2.318465709686279297e+00 -3.468890488147735596e-01
-1.623435020446777344e+00 3.350276947021484375e-01 5.314436554908752441e-01 -9.653339385986328125e-01 1.788478255271911621e+00 2.779170274734497070e-01 2.710220813751220703e+00 4.230815470218658447e-01
-4.232171475887298584e-01 -7.169135808944702148e-01 5.954143404960632324e-01 4.669750630855560303e-01 1.732589721679687500e+00 1.654840074479579926e-02 2.167818546295166016e+00 1.561297655105590820e+00
-2.239701896905899048e-01 -7.592049241065979004e-01 7.988866567611694336e-01 1.028148412704467773e+00 1.576153516769409180e+00 2.606393396854400635e-01 2.092265129089355469e+00 1.712615609169006348e+00
-1.351887226104736328e+00 -3.962227404117584229e-01 1.186826705932617188e+00 -1.764865756034851074e+00 2.466824769973754883e+00 -2.412047088146209717e-01 2.213239192962646484e+00 1.247591257095336914e+00
-1.204314902424812317e-01 1.715615577995777130e-02 6.192672848701477051e-01 1.192868351936340332e+00 5.479606389999389648e-01 -7.210667133331298828e-01 2.254328727722167969e+00 2.588896453380584717e-01
-4.830225557088851929e-02 -2.606275118887424469e-02 3.421793282032012939e-01 2.051367044448852539e+00 9.834648966789245605e-01 -7.235153112560510635e-03 2.427373886108398438e+00 2.097587436437606812e-01
1.775811076164245605e+00 5.640670061111450195e-01 3.586291074752807617e-01 -3.876439630985260010e-01 1.690891385078430176e+00 -2.385319948196411133e+00 2.240911960601806641e+00 -7.128474712371826172e-01
-4.686383008956909180e-01 -3.336846828460693359e-01 1.336197972297668457e+00 1.076267242431640625e+00 4.036703109741210938e-01 -1.364643931388854980e+00 1.900154709815979004e+00 1.114925384521484375e+00
-1.150185942649841309e+00 -2.473118901252746582e-01 1.887822389602661133e+00 -2.348314762115478516e+00 3.142083406448364258e+00 -4.853599965572357178e-01 2.891428470611572266e+00 9.830930233001708984e-01
-7.818642854690551758e-01 -3.765315115451812744e-01 4.034361243247985840e-01 1.002982035279273987e-01 1.448233366012573242e+00 2.318725287914276123e-01 2.090366125106811523e+00 6.713550686836242676e-01
-1.595464110374450684e+00 -2.142897546291351318e-01 1.583704590797424316e+00 -1.414890050888061523e+00 2.256370067596435547e+00 6.435023993253707886e-02 2.297897100448608398e+00 1.801142573356628418e+00
-1.523227691650390625e+00 2.369927316904067993e-01 -4.175735637545585632e-02 3.774363100528717041e-01 1.338095903396606445e+00 1.165094494819641113e+00 2.728493928909301758e+00 -4.320036172866821289e-01
-1.403260882943868637e-02 2.502968013286590576e-01 4.925452768802642822e-01 7.174398303031921387e-01 1.197418451309204102e+00 2.980358898639678955e-01 2.006461620330810547e+00 -5.965461730957031250e-01
-1.041398882865905762e+00 2.946431934833526611e-01 1.199795007705688477e+00 -6.198603659868240356e-03 9.848303198814392090e-01 1.373430192470550537e-01 2.093423843383789062e+00 2.824411690235137939e-01
3.766922056674957275e-01 4.395265877246856689e-01 8.308401107788085938e-01 2.329610824584960938e+00 6.392256617546081543e-01 3.751181811094284058e-02 2.597491979598999023e+00 -1.274273097515106201e-01
-4.720897674560546875e-01 -2.901011109352111816e-01 1.197068452835083008e+00 6.108086928725242615e-02 1.259516119956970215e+00 8.732256293296813965e-02 2.172084331512451172e+00 9.070722460746765137e-01
6.811984777450561523e-01 2.971251010894775391e-01 1.106958866119384766e+00 2.400561571121215820e+00 1.093460693955421448e-01 -1.213559031486511230e+00 2.324153661727905273e+00 6.214519590139389038e-02
-1.122507214546203613e+00 -8.051741123199462891e-01 1.958379268646240234e+00 -5.578799843788146973e-01 1.533924460411071777e+00 -7.923985719680786133e-01 1.901888608932495117e+00 6.840487122535705566e-01
3.583356440067291260e-01 -3.629292845726013184e-01 6.370559930801391602e-01 -1.260019093751907349e-02 1.733688831329345703e+00 -1.090577840805053711e+00 1.950099945068359375e+00 5.391474366188049316e-01
-9.284232854843139648e-01 -7.390239238739013672e-01 2.272138297557830811e-01 -3.127412199974060059e-01 1.746491312980651855e+00 3.261076807975769043e-01 2.450441122055053711e+00 1.247967243194580078e+00
2.203534990549087524e-01 2.153749465942382812e-01 5.077614188194274902e-01 2.445760965347290039e+00 7.095994353294372559e-01 -1.233877241611480713e-01 2.395527124404907227e+00 2.042756080627441406e-01
8.874748945236206055e-01 4.761304855346679688e-01 1.100561395287513733e-01 -2.325664162635803223e-01 2.011873006820678711e+00 -1.679687619209289551e+00 2.362483024597167969e+00 -1.233398914337158203e+00
-6.840997338294982910e-01 -4.982948303222656250e-01 5.246505737304687500e-01 -5.955608487129211426e-01 2.008109569549560547e+00 -2.398160248994827271e-01 1.953787207603454590e+00 3.515869379043579102e-01
1.233629360795021057e-01 -6.546745300292968750e-01 1.019423365592956543e+00 2.227419614791870117e-01 1.927642941474914551e+00 -2.041894495487213135e-01 1.861504316329956055e+00 1.633980870246887207e+00
-1.894693239592015743e-03 -1.288449019193649292e-01 1.230332106351852417e-01 -1.403989195823669434e-01 1.503410935401916504e+00 -7.311239242553710938e-01 2.163119316101074219e+00 -1.833821386098861694e-01
-1.335791230201721191e+00 3.635019958019256592e-01 1.482062578201293945e+00 -1.821426153182983398e+00 2.377116441726684570e+00 7.793386280536651611e-02 2.704668283462524414e+00 1.420841097831726074e+00
-1.635976731777191162e-01 1.766094416379928589e-01 5.885595679283142090e-01 4.707204103469848633e-01 1.221061944961547852e+00 -4.783161282539367676e-01 2.095644950866699219e+00 2.507282793521881104e-01
2.595585882663726807e-01 1.280886083841323853e-01 1.105558276176452637e+00 2.745103836059570312e+00 -2.913921140134334564e-03 -2.077926635742187500e+00 1.926258563995361328e+00 3.838415443897247314e-01
2.264787107706069946e-01 6.754703521728515625e-01 1.081263422966003418e+00 2.167217254638671875e+00 5.516902804374694824e-01 1.691173315048217773e-01 2.324800252914428711e+00 -4.262240231037139893e-01
9.035703539848327637e-01 3.580669164657592773e-01 6.679434180259704590e-01 1.571904182434082031e+00 9.869552850723266602e-01 -1.506579041481018066e+00 2.394661426544189453e+00 -7.948419451713562012e-02
-6.366548687219619751e-02 4.193649441003799438e-02 5.685335993766784668e-01 3.262175619602203369e-01 1.541563510894775391e+00 -4.062775671482086182e-01 2.053884744644165039e+00 3.788123130798339844e-01
-5.685409903526306152e-01 1.836595088243484497e-01 1.249998569488525391e+00 2.981652319431304932e-01 1.549063205718994141e+00 9.011925756931304932e-02 1.938151121139526367e+00 7.142196297645568848e-01
-1.034440636634826660e+00 -1.542369872331619263e-01 1.327752232551574707e+00 -1.392359733581542969e+00 2.519365549087524414e+00 -6.928786039352416992e-01 2.311895608901977539e+00 1.048418402671813965e+00
3.467232286930084229e-01 -1.542974114418029785e-01 3.911779522895812988e-01 1.384105801582336426e+00 4.707636237144470215e-01 -1.563383221626281738e+00 2.160311937332153320e+00 -2.589001655578613281e-01
1.229900419712066650e-01 3.949561715126037598e-02 5.829579234123229980e-01 6.447450518608093262e-01 1.110933303833007812e+00 -1.018493771553039551e+00 1.960784673690795898e+00 5.512713193893432617e-01
-2.508877813816070557e-01 -2.186392247676849365e-01 3.554058969020843506e-01 4.986475110054016113e-01 1.326013684272766113e+00 -1.623431444168090820e-01 2.264021396636962891e+00 5.175284147262573242e-01
-2.667078673839569092e-01 4.118631780147552490e-01 8.932603001594543457e-01 2.119242995977401733e-01 1.124756336212158203e+00 -6.166803240776062012e-01 1.949024438858032227e+00 8.863461762666702271e-02
-1.049306035041809082e+00 2.089176476001739502e-01 1.451611399650573730e+00 -4.497534036636352539e-01 1.486383199691772461e+00 -2.357879281044006348e-01 2.136147260665893555e+00 7.301180362701416016e-01
-2.270329743623733521e-01 -1.564627140760421753e-01 4.892908930778503418e-01 6.227958798408508301e-01 8.253087997436523438e-01 -7.200887203216552734e-01 2.125014066696166992e+00 8.897572755813598633e-01
4.240470528602600098e-01 6.498985290527343750e-01 3.598136007785797119e-01 1.771072864532470703e+00 7.770353555679321289e-01 -6.571780443191528320e-01 2.420111179351806641e+00 -6.377066969871520996e-01
3.676042258739471436e-01 -4.986942410469055176e-01 4.202816784381866455e-01 6.784533858299255371e-01 1.472184896469116211e+00 -9.217449426651000977e-01 1.940496444702148438e+00 1.219984650611877441e+00
1.872719079256057739e-01 2.976921796798706055e-01 7.375689148902893066e-01 1.350557923316955566e+00 3.549000024795532227e-01 -1.204855561256408691e+00 2.117914438247680664e+00 4.440987482666969299e-02
-4.996251463890075684e-01 4.664530158042907715e-01 7.385023832321166992e-01 2.338873386383056641e+00 2.889374196529388428e-01 3.951216340065002441e-01 2.338347911834716797e+00 4.184820502996444702e-02
4.851457774639129639e-01 4.786766767501831055e-01 5.727221369743347168e-01 3.958410322666168213e-01 1.500167727470397949e+00 -1.005074501037597656e+00 2.382733821868896484e+00 -8.356329798698425293e-01
9.864712357521057129e-01 -4.627622291445732117e-02 1.870501972734928131e-02 1.817828565835952759e-01 2.015231847763061523e+00 -1.762123823165893555e+00 2.546990633010864258e+00 -7.774831652641296387e-01
-6.644363999366760254e-01 -1.593325585126876831e-01 1.920014470815658569e-01 5.991229414939880371e-01 1.130339264869689941e+00 -1.958210617303848267e-01 2.312669038772583008e+00 -4.041620194911956787e-01
3.309170007705688477e-01 2.133682072162628174e-01 5.329867005348205566e-01 7.433751225471496582e-01 1.425957679748535156e+00 -9.198828935623168945e-01 2.094525575637817383e+00 -7.490867972373962402e-01
-9.505210518836975098e-01 6.097732782363891602e-01 5.955033302307128906e-01 2.044713735580444336e+00 -2.407613098621368408e-01 1.316161155700683594e-01 3.322311162948608398e+00 -3.595897257328033447e-01
-1.982726305723190308e-01 8.993662893772125244e-02 4.964076280593872070e-01 -1.012389585375785828e-01 1.575651049613952637e+00 -7.011731266975402832e-01 2.152832508087158203e+00 1.997941434383392334e-01
-1.079181909561157227e+00 -2.510614991188049316e-01 1.029739141464233398e+00 -1.352492690086364746e+00 2.072427511215209961e+00 1.716618835926055908e-01 2.500373840332031250e+00 1.295164942741394043e+00
-4.407714605331420898e-01 -1.086168661713600159e-01 8.822582960128784180e-01 9.374968409538269043e-01 6.827437877655029297e-01 -2.145701348781585693e-01 1.971559524536132812e+00 8.361600637435913086e-01
-3.994628190994262695e-01 1.298029571771621704e-01 8.525752425193786621e-01 -1.195324212312698364e-01 1.421517372131347656e+00 -6.044254302978515625e-01 1.891658782958984375e+00 6.063787937164306641e-01
-6.374522447586059570e-01 5.531073212623596191e-01 6.807118654251098633e-01 4.910036921501159668e-01 6.392267346382141113e-01 1.975296586751937866e-01 2.752892971038818359e+00 -2.500559091567993164e-01
2.672614157199859619e-01 5.219117924571037292e-02 1.125619769096374512e+00 2.031405687332153320e+00 4.013910889625549316e-01 -1.191392064094543457e+00 2.115537166595458984e+00 6.692075729370117188e-01
-7.377288937568664551e-01 4.322094023227691650e-01 7.715454697608947754e-01 -1.293887257575988770e+00 2.278070688247680664e+00 -5.980153083801269531e-01 2.699635028839111328e+00 4.341932535171508789e-01
6.858521103858947754e-01 3.680120036005973816e-02 7.469629049301147461e-01 5.135899186134338379e-01 9.960943460464477539e-01 -8.641806244850158691e-01 2.248826980590820312e+00 1.250103592872619629e+00
-4.670156538486480713e-01 1.168633252382278442e-02 4.851016700267791748e-01 1.684253692626953125e+00 4.644323587417602539e-01 -1.251545697450637817e-01 2.669531106948852539e+00 -2.736276686191558838e-01
-8.419049978256225586e-01 -2.090305685997009277e-01 5.856355428695678711e-01 4.523278772830963135e-01 1.142893195152282715e+00 3.268776834011077881e-01 2.237268209457397461e+00 1.124465942382812500e+00
-5.574390292167663574e-01 1.646642088890075684e-01 9.029134511947631836e-01 -6.449893862009048462e-02 1.671634435653686523e+00 -3.440330624580383301e-01 2.233538389205932617e+00 4.945012927055358887e-01
-1.037102699279785156e+00 4.083053022623062134e-02 1.207550764083862305e+00 -4.864721894264221191e-01 1.442611098289489746e+00 -8.973009884357452393e-02 2.255467414855957031e+00 5.776806473731994629e-01
8.273386359214782715e-01 4.368945062160491943e-01 2.430901825428009033e-01 2.557737380266189575e-02 1.288721442222595215e+00 -1.860470175743103027e+00 2.370969533920288086e+00 -4.368156567215919495e-02
-1.169273138046264648e+00 5.369217991828918457e-01 6.835911870002746582e-01 2.123689800500869751e-01 1.031850695610046387e+00 6.244627833366394043e-01 2.433084249496459961e+00 -2.954859137535095215e-01
-7.423040270805358887e-01 -2.648435235023498535e-01 3.969364166259765625e-01 9.275882840156555176e-01 9.954257607460021973e-01 5.064415335655212402e-01 1.960102319717407227e+00 6.493326425552368164e-01
-8.866856247186660767e-02 2.539031505584716797e-01 7.127348184585571289e-01 1.463145971298217773e+00 2.534605562686920166e-01 -9.921564459800720215e-01 1.998522400856018066e+00 5.133247971534729004e-01
1.173060417175292969e+00 9.787533283233642578e-01 -7.728318125009536743e-02 1.597035229206085205e-01 1.348623275756835938e+00 -1.574843406677246094e+00 1.967962741851806641e+00 -5.542153120040893555e-01
-8.029372096061706543e-01 -4.760015755891799927e-03 9.379901885986328125e-01 6.954233050346374512e-01 8.871069550514221191e-01 1.529443562030792236e-01 2.172150611877441406e+00 3.772938549518585205e-01
-9.785291552543640137e-01 7.064411789178848267e-02 5.706650018692016602e-01 -7.817026972770690918e-01 1.844325542449951172e+00 -2.653512060642242432e-01 2.627586603164672852e+00 4.758434593677520752e-01
-7.159624993801116943e-02 2.258149087429046631e-01 6.581144928932189941e-01 1.279989242553710938e+00 6.027151942253112793e-01 -7.656909823417663574e-01 2.571955204010009766e+00 -2.384632080793380737e-01
1.902910917997360229e-01 5.083740353584289551e-01 7.083384990692138672e-01 5.916537642478942871e-01 1.272294640541076660e+00 -7.087714672088623047e-01 2.106597900390625000e+00 1.667452976107597351e-02
-4.625700712203979492e-01 -2.698335051536560059e-01 8.398926854133605957e-01 -5.970968008041381836e-01 1.861818909645080566e+00 -4.475536346435546875e-01 2.146139621734619141e+00 9.587803483009338379e-01
7.087331414222717285e-01 6.365095078945159912e-02 5.275934338569641113e-01 3.635524809360504150e-01 1.676689386367797852e+00 -1.821326613426208496e+00 1.959669589996337891e+00 -1.514674872159957886e-01
-3.002777695655822754e-02 -9.246503561735153198e-02 8.820317983627319336e-01 1.233892560005187988e+00 1.069294661283493042e-01 -1.127697944641113281e+00 2.379825592041015625e+00 1.803585737943649292e-01
8.555861711502075195e-01 1.473248600959777832e-01 5.726391673088073730e-01 1.871129274368286133e+00 9.349409490823745728e-02 -1.580857753753662109e+00 2.219119548797607422e+00 1.777739226818084717e-01
1.076156020164489746e+00 3.799183368682861328e-01 1.513572633266448975e-01 -1.308074593544006348e-01 2.060622930526733398e+00 -1.946426272392272949e+00 2.424746990203857422e+00 -1.762768030166625977e-01
8.061335086822509766e-01 2.382648885250091553e-01 4.725960195064544678e-01 -2.106033861637115479e-01 1.954972982406616211e+00 -1.967709302902221680e+00 2.083665847778320312e+00 -3.684519231319427490e-01
-4.266920089721679688e-01 -1.585712134838104248e-01 8.605509996414184570e-01 7.519986033439636230e-01 2.508037388324737549e-01 -1.145879864692687988e+00 2.163970470428466797e+00 1.991867423057556152e-01
6.291396617889404297e-01 2.516022324562072754e-01 5.570514798164367676e-01 1.685783743858337402e+00 3.764079511165618896e-01 -1.889966964721679688e+00 2.209822416305541992e+00 -4.078134596347808838e-01
-4.640700519084930420e-01 2.248651534318923950e-01 3.401156067848205566e-01 4.970554709434509277e-01 1.311788558959960938e+00 -6.179370284080505371e-01 2.726953744888305664e+00 -3.531970977783203125e-01
-3.197391703724861145e-02 3.122697472572326660e-01 8.393458724021911621e-01 2.298003435134887695e+00 2.903491854667663574e-01 7.832919247448444366e-03 2.226967811584472656e+00 4.100418463349342346e-02
-4.552414417266845703e-01 2.182787954807281494e-01 1.594405174255371094e+00 -7.585346102714538574e-01 1.489564895629882812e+00 -2.876458168029785156e-01 1.877743244171142578e+00 1.903420448303222656e+00
2.475615143775939941e-01 8.335897326469421387e-01 5.560494661331176758e-01 1.352240294218063354e-01 1.100849747657775879e+00 -5.019018054008483887e-01 1.985554695129394531e+00 -4.233825802803039551e-01
-4.001568257808685303e-02 1.013990640640258789e-01 7.010189294815063477e-01 1.666160583496093750e+00 7.198064923286437988e-01 -5.582241415977478027e-01 2.111313104629516602e+00 1.000924333930015564e-01
8.104110956192016602e-01 1.356941312551498413e-01 3.794741332530975342e-01 -4.800509512424468994e-01 1.946296215057373047e+00 -1.939572453498840332e+00 2.237546443939208984e+00 -3.624872267246246338e-01
-4.017801284790039062e-01 7.756958901882171631e-02 9.714936614036560059e-01 1.106824636459350586e+00 4.164761304855346680e-01 -4.170970618724822998e-01 2.267718315124511719e+00 2.157321572303771973e-01
3.826659917831420898e-01 1.590927988290786743e-01 7.187907099723815918e-01 1.052693963050842285e+00 1.072883725166320801e+00 -8.147358298301696777e-01 2.052361488342285156e+00 -2.384139597415924072e-01
-3.058476448059082031e-01 -8.007275462150573730e-01 6.171968579292297363e-01 -3.350732102990150452e-02 1.813094258308410645e+00 -2.260015010833740234e-01 1.630416274070739746e+00 1.184105515480041504e+00
7.090090960264205933e-02 -3.523601964116096497e-02 4.705474376678466797e-01 2.758219242095947266e-01 1.216023564338684082e+00 -9.403015971183776855e-01 1.969132542610168457e+00 -1.692089736461639404e-01
3.156668543815612793e-01 7.476267963647842407e-02 5.489991903305053711e-01 1.513495802879333496e+00 1.879165880382061005e-02 -1.479020595550537109e+00 1.789376974105834961e+00 1.286041289567947388e-01
7.445109486579895020e-01 6.314373016357421875e-01 4.760291576385498047e-01 2.103034257888793945e-01 1.557146310806274414e+00 -1.603606820106506348e+00 2.431196928024291992e+00 -3.444735407829284668e-01
7.411741018295288086e-01 2.099203169345855713e-01 -8.307928219437599182e-03 -1.103862076997756958e-01 1.682899594306945801e+00 -1.567792415618896484e+00 2.192055702209472656e+00 -1.106502532958984375e+00
3.843792080879211426e-01 5.771061182022094727e-01 7.742187380790710449e-01 2.608980178833007812e+00 4.997450113296508789e-01 -1.769868582487106323e-01 1.978811621665954590e+00 -7.518862932920455933e-02
3.146414458751678467e-01 2.725175619125366211e-01 6.736118793487548828e-01 1.495097279548645020e+00 6.328915357589721680e-01 -1.453224301338195801e+00 2.478892326354980469e+00 -3.257146775722503662e-01
4.488059878349304199e-01 6.494229435920715332e-01 4.012557864189147949e-01 9.816379547119140625e-01 9.402770400047302246e-01 -1.067525029182434082e+00 2.093477010726928711e+00 -2.346145212650299072e-01
-1.020017564296722412e-01 -2.330615669488906860e-01 6.589189767837524414e-01 4.497736394405364990e-01 9.063777923583984375e-01 -9.045194983482360840e-01 2.304796695709228516e+00 -1.343073695898056030e-02
-9.351038932800292969e-01 -3.676713407039642334e-01 1.366111993789672852e+00 -1.360190629959106445e+00 2.205073118209838867e+00 -2.301349937915802002e-01 2.160698652267456055e+00 1.549944043159484863e+00
-6.134366989135742188e-01 3.370715081691741943e-01 1.092440724372863770e+00 -1.388278901576995850e-01 1.132847070693969727e+00 -3.515376448631286621e-01 2.044312953948974609e+00 7.495104670524597168e-01
-6.838686466217041016e-01 -2.243165373802185059e-01 7.535183429718017578e-01 4.218820631504058838e-01 1.416474103927612305e+00 1.003508567810058594e-01 1.920314192771911621e+00 1.055535674095153809e+00
-2.488588690757751465e-01 -7.976976037025451660e-02 9.230943322181701660e-01 6.577336192131042480e-01 8.050074577331542969e-01 -8.351143598556518555e-01 2.042638301849365234e+00 5.431904792785644531e-01
8.979091644287109375e-01 2.714326083660125732e-01 4.875288605690002441e-01 -5.162547826766967773e-01 1.870025277137756348e+00 -1.987040042877197266e+00 2.231168031692504883e+00 -3.392111361026763916e-01
8.379040956497192383e-01 5.298650264739990234e-01 1.034980773925781250e+00 2.143349885940551758e+00 2.115712612867355347e-01 -1.968088269233703613e+00 2.082264423370361328e+00 -1.251258254051208496e-01
-2.101253420114517212e-01 -9.848735481500625610e-02 5.787425041198730469e-01 8.077940344810485840e-01 6.573362946510314941e-01 -6.591333150863647461e-01 1.792770147323608398e+00 -3.931618854403495789e-02
-7.408183217048645020e-01 1.905097365379333496e-01 1.023095250129699707e+00 -4.253230094909667969e-01 1.548913002014160156e+00 9.941861778497695923e-02 2.127966642379760742e+00 5.948449969291687012e-01
6.573546528816223145e-01 4.870962202548980713e-01 7.430437803268432617e-01 2.072208404541015625e+00 8.426585793495178223e-01 -1.117010712623596191e+00 2.079725503921508789e+00 -2.135441750288009644e-01
-5.665909647941589355e-01 2.254941761493682861e-01 6.246548891067504883e-01 -4.631868600845336914e-01 2.159048795700073242e+00 -3.256943225860595703e-01 2.505465745925903320e+00 6.341810822486877441e-01
-8.172698020935058594e-01 -1.716551780700683594e-01 1.395379662513732910e+00 -1.322112798690795898e+00 1.783527135848999023e+00 1.835089474916458130e-01 1.556725621223449707e+00 1.338888645172119141e+00
-4.554553925991058350e-01 -2.978022098541259766e-01 7.939473390579223633e-01 -1.530618779361248016e-02 1.405383467674255371e+00 -3.282529413700103760e-01 1.977412700653076172e+00 4.190078377723693848e-01
-1.003583788871765137e+00 3.319157958030700684e-01 3.878200352191925049e-01 -6.405230164527893066e-01 1.503086805343627930e+00 -5.369106307625770569e-02 1.957337260246276855e+00 -3.037346899509429932e-01
7.079257369041442871e-01 2.404886186122894287e-01 1.095572561025619507e-01 1.071375384926795959e-01 1.771368980407714844e+00 -1.718931198120117188e+00 2.026031732559204102e+00 -6.286605596542358398e-01
-7.209131121635437012e-01 -5.480784177780151367e-02 8.076174259185791016e-01 -7.525193095207214355e-01 1.698805451393127441e+00 -3.483349978923797607e-01 1.812802553176879883e+00 1.082324266433715820e+00
-6.209903359413146973e-01 -2.698985040187835693e-01 7.164530754089355469e-01 -1.447598814964294434e+00 1.845852375030517578e+00 -3.620011508464813232e-01 1.866706967353820801e+00 9.598041176795959473e-01
-5.774811506271362305e-01 2.010186314582824707e-01 1.008713126182556152e+00 -9.356012567877769470e-03 1.293307423591613770e+00 -2.836910784244537354e-01 1.991986036300659180e+00 -4.656985402107238770e-02
-1.036379262804985046e-01 3.336269855499267578e-01 1.287243127822875977e+00 7.597609758377075195e-01 9.666970968246459961e-01 -3.010542988777160645e-01 1.632754325866699219e+00 6.138877868652343750e-01
-1.273555308580398560e-01 3.189549148082733154e-01 8.702831268310546875e-01 6.996657252311706543e-01 8.380954265594482422e-01 -7.144168019294738770e-01 2.004505634307861328e+00 3.487769961357116699e-01
-6.405000090599060059e-01 4.244554042816162109e-02 4.798366725444793701e-01 5.316075086593627930e-01 9.533068537712097168e-01 -4.938160479068756104e-01 2.106435060501098633e+00 2.001307606697082520e-01
6.594074368476867676e-01 2.711473405361175537e-01 3.772004842758178711e-01 1.449422240257263184e-01 1.439618229866027832e+00 -1.266189575195312500e+00 2.232445001602172852e+00 -5.203811526298522949e-01
2.206203788518905640e-01 -1.300248783081769943e-02 4.461877644062042236e-01 1.143582344055175781e+00 7.298497557640075684e-01 -1.656455516815185547e+00 1.962704658508300781e+00 -4.187033176422119141e-01
3.220163583755493164e-01 5.533316731452941895e-02 2.815382182598114014e-01 2.687439322471618652e-01 1.329276561737060547e+00 -1.129287242889404297e+00 2.314195394515991211e+00 -2.318864166736602783e-01
4.806160032749176025e-01 4.295215904712677002e-01 5.936571955680847168e-01 1.007589459419250488e+00 1.316364884376525879e+00 -7.325160503387451172e-01 2.463838577270507812e+00 -7.314838767051696777e-01
-1.532520532608032227e+00 4.727014526724815369e-02 1.175225853919982910e+00 -1.260702610015869141e+00 1.826444029808044434e+00 -1.845454871654510498e-01 2.305177688598632812e+00 9.310435056686401367e-01
9.261440038681030273e-01 8.605105280876159668e-01 9.929487109184265137e-02 2.261720448732376099e-01 1.269060134887695312e+00 -1.201808094978332520e+00 1.993193984031677246e+00 -3.743154406547546387e-01
3.816460371017456055e-01 3.960212469100952148e-01 1.222378462553024292e-01 3.034754991531372070e-01 1.536291718482971191e+00 -1.267420649528503418e+00 2.628445863723754883e+00 -3.096153438091278076e-01
-1.262735277414321899e-01 -1.876358985900878906e-01 1.660680919885635376e-01 1.047722816467285156e+00 9.156768918037414551e-01 -1.218835234642028809e+00 1.704545021057128906e+00 -2.730719149112701416e-01
1.038220405578613281e+00 1.996873170137405396e-01 2.956374585628509521e-01 -4.347776472568511963e-01 1.798788785934448242e+00 -1.829361677169799805e+00 2.212429046630859375e+00 -5.137872695922851562e-01
1.524413079023361206e-01 2.534147351980209351e-02 8.983463644981384277e-01 1.794666051864624023e+00 7.353528738021850586e-01 -1.033850833773612976e-01 1.757655620574951172e+00 6.377571225166320801e-01
-4.162661731243133545e-02 -1.269366592168807983e-01 6.785404682159423828e-01 4.484392404556274414e-01 8.742113113403320312e-01 -9.456573724746704102e-01 1.897234797477722168e+00 2.469590455293655396e-01
-2.287959158420562744e-01 4.537032172083854675e-02 8.602777719497680664e-01 1.342782825231552124e-01 8.401635885238647461e-01 -1.179026842117309570e+00 1.841884493827819824e+00 4.035963416099548340e-01
-7.266238331794738770e-01 -1.221344694495201111e-01 8.575116991996765137e-01 -3.651885688304901123e-01 1.492311358451843262e+00 -2.115233838558197021e-01 2.122240543365478516e+00 6.454784274101257324e-01
2.081112712621688843e-01 -6.270982325077056885e-02 5.715743303298950195e-01 7.640430927276611328e-01 7.254275083541870117e-01 -7.491690516471862793e-01 1.965870618820190430e+00 7.996660470962524414e-02
-3.438833653926849365e-01 -3.723013997077941895e-01 7.241681814193725586e-01 3.747461140155792236e-01 1.276275277137756348e+00 -1.438135653734207153e-01 1.679947972297668457e+00 1.143533468246459961e+00
-3.870475888252258301e-01 2.178495973348617554e-01 7.882909178733825684e-01 6.624009609222412109e-01 1.067917704582214355e+00 -4.434408843517303467e-01 1.711375236511230469e+00 6.346595287322998047e-01
4.469049274921417236e-01 -2.468273229897022247e-02 5.565329194068908691e-01 4.659018516540527344e-01 9.145140051841735840e-01 -1.485143303871154785e+00 1.958556532859802246e+00 -2.534410357475280762e-01
4.478926956653594971e-01 6.031286120414733887e-01 6.275017261505126953e-01 9.069514274597167969e-01 1.289051294326782227e+00 -6.240224838256835938e-01 2.291565656661987305e+00 -1.130858182907104492e+00
-3.761386126279830933e-02 -3.875046670436859131e-01 1.036487743258476257e-01 1.003223061561584473e+00 8.183129429817199707e-01 -1.106555700302124023e+00 1.854128241539001465e+00 3.416323289275169373e-02
4.028019309043884277e-01 4.622555673122406006e-01 5.533780455589294434e-01 2.260844409465789795e-01 1.099607467651367188e+00 -1.348631262779235840e+00 2.216983556747436523e+00 -5.194820165634155273e-01
5.695127248764038086e-01 4.315901398658752441e-01 6.755660772323608398e-01 1.211201548576354980e+00 1.216369509696960449e+00 -1.283329129219055176e+00 2.119883298873901367e+00 -1.433064788579940796e-01
-7.525078058242797852e-01 -1.146592125296592712e-01 9.977471232414245605e-01 -1.915502101182937622e-01 1.393915772438049316e+00 -5.651300027966499329e-02 1.811857342720031738e+00 1.096410632133483887e+00
6.551907658576965332e-01 5.183995366096496582e-01 7.198255658149719238e-01 1.208608627319335938e+00 4.977436959743499756e-01 -1.703542947769165039e+00 2.119647026062011719e+00 -4.565155506134033203e-02
3.688424825668334961e-01 -2.189628332853317261e-01 4.491770863533020020e-01 1.226013183593750000e+00 1.150073528289794922e+00 -7.413225769996643066e-01 1.918475508689880371e+00 1.642489992082118988e-02
-2.982530891895294189e-01 9.008117765188217163e-02 8.440963029861450195e-01 1.099743485450744629e+00 1.886937320232391357e-01 -5.888807177543640137e-01 2.186549901962280273e+00 1.306586153805255890e-02
5.020933747291564941e-01 3.808211386203765869e-01 2.840113043785095215e-01 8.072655797004699707e-01 1.313199400901794434e+00 -1.203559279441833496e+00 2.012151241302490234e+00 -5.377533435821533203e-01
1.781989932060241699e-01 7.195164263248443604e-02 6.347137689590454102e-01 7.240431308746337891e-01 1.088186025619506836e+00 -1.128801703453063965e+00 1.908900976181030273e+00 3.261704444885253906e-01
7.663124799728393555e-01 1.493740975856781006e-01 5.299250483512878418e-01 1.978449106216430664e+00 9.107422232627868652e-01 -6.577434539794921875e-01 1.911407947540283203e+00 -1.140688210725784302e-01
1.702331379055976868e-02 6.232340931892395020e-01 5.086860060691833496e-01 1.180969119071960449e+00 6.790382862091064453e-01 -4.567817747592926025e-01 2.011984586715698242e+00 -2.440697103738784790e-01
3.153680562973022461e-01 3.813836872577667236e-01 6.909534931182861328e-01 -1.386850047856569290e-02 1.607330441474914551e+00 -1.196226716041564941e+00 2.329754590988159180e+00 3.546373844146728516e-01
-2.234428077936172485e-01 2.438003197312355042e-02 9.962785840034484863e-01 3.019772469997406006e-01 9.649671316146850586e-01 -5.702795982360839844e-01 1.479425549507141113e+00 8.570912480354309082e-01
-6.065023541450500488e-01 -9.474352002143859863e-02 6.134387254714965820e-01 -9.433944225311279297e-01 1.948848605155944824e+00 -1.505839079618453979e-01 1.818230032920837402e+00 8.016341328620910645e-01
-9.466250538825988770e-01 2.531559579074382782e-02 5.056896209716796875e-01 -7.861588001251220703e-01 1.288818955421447754e+00 -1.259656995534896851e-01 2.025708913803100586e+00 7.037366032600402832e-01
-5.144100189208984375e-01 -5.930593982338905334e-02 7.919007539749145508e-01 1.896980553865432739e-01 9.345055818557739258e-01 -3.660688400268554688e-01 1.826145648956298828e+00 3.360967040061950684e-01
-3.884582221508026123e-01 -2.006321400403976440e-01 9.047111272811889648e-01 -3.808556497097015381e-02 1.188068985939025879e+00 -4.735176265239715576e-01 1.793792486190795898e+00 6.588138341903686523e-01
-3.159436583518981934e-02 -3.018297553062438965e-01 5.560147166252136230e-01 1.386428713798522949e+00 5.164989829063415527e-01 -1.006155490875244141e+00 2.022544622421264648e+00 -1.603016704320907593e-01
-1.193361878395080566e+00 -4.813761711120605469e-01 1.501950740814208984e+00 -1.235759019851684570e+00 2.178058147430419922e+00 -1.622947454452514648e-01 1.941210269927978516e+00 5.245226025581359863e-01
-3.868823945522308350e-01 1.625790745019912720e-01 6.922729015350341797e-01 -2.931540608406066895e-01 1.312674403190612793e+00 -4.500239491462707520e-01 2.013940572738647461e+00 3.018189370632171631e-01
-1.104076147079467773e+00 3.866595327854156494e-01 1.193316459655761719e+00 -1.083665490150451660e+00 1.723876476287841797e+00 -2.272159606218338013e-01 2.088145017623901367e+00 1.160880923271179199e+00
-4.163711965084075928e-01 -3.492152094841003418e-01 9.285884499549865723e-01 6.715667843818664551e-01 8.490315079689025879e-01 -8.204236626625061035e-01 1.717838883399963379e+00 7.250413894653320312e-01
-9.464465826749801636e-02 9.982305765151977539e-02 7.805209755897521973e-01 7.560778260231018066e-01 5.405403971672058105e-01 -1.118641614913940430e+00 1.876745462417602539e+00 6.135596632957458496e-01
3.837123513221740723e-01 -1.593722999095916748e-01 2.401314675807952881e-01 1.155349493026733398e+00 8.536398410797119141e-01 -8.283945918083190918e-01 1.997471809387207031e+00 -2.094187289476394653e-01
-3.491594493389129639e-01 3.154743909835815430e-01 6.989754438400268555e-01 1.811389803886413574e+00 2.250973731279373169e-01 -4.505015909671783447e-03 2.043874263763427734e+00 2.386910915374755859e-01
-7.617272734642028809e-01 4.285583198070526123e-01 6.661062240600585938e-01 8.080320954322814941e-01 7.281132340431213379e-01 1.388659179210662842e-01 1.859438776969909668e+00 -1.920024901628494263e-01
-3.482015058398246765e-02 -2.118286341428756714e-01 3.321418166160583496e-01 1.097630023956298828e+00 5.593771934509277344e-01 -9.187142848968505859e-01 1.879036068916320801e+00 -2.277120798826217651e-01
1.002186655998229980e+00 1.337949782609939575e-01 1.156708747148513794e-01 -1.821191757917404175e-01 1.610206365585327148e+00 -1.773410916328430176e+00 2.295784950256347656e+00 -5.524637103080749512e-01
-5.525456666946411133e-01 -9.076808393001556396e-02 9.109076261520385742e-01 -5.111127495765686035e-01 1.603402853012084961e+00 -3.867162168025970459e-01 1.814809203147888184e+00 6.705542802810668945e-01
-2.994729876518249512e-01 4.456185698509216309e-01 6.429222822189331055e-01 1.373090863227844238e+00 5.040621161460876465e-01 1.466740518808364868e-01 1.924352884292602539e+00 2.106603682041168213e-01
4.952630698680877686e-01 1.960287839174270630e-01 1.696118712425231934e-01 3.955060616135597229e-03 1.175547838211059570e+00 -1.338255047798156738e+00 2.010587692260742188e+00 -4.421221613883972168e-01
2.917026877403259277e-01 6.106711626052856445e-01 2.733788192272186279e-01 6.012027263641357422e-01 1.128268718719482422e+00 -1.115334510803222656e+00 2.179723024368286133e+00 -1.811206340789794922e-01
2.014621645212173462e-01 3.760639429092407227e-01 8.649743795394897461e-01 1.299767851829528809e+00 4.968445599079132080e-01 -1.352813363075256348e+00 1.880407691001892090e+00 4.670819342136383057e-01
4.543559253215789795e-01 4.683199226856231689e-01 8.620900511741638184e-01 2.011983156204223633e+00 -1.082473546266555786e-01 -1.228626489639282227e+00 1.980481147766113281e+00 5.084345489740371704e-02
-3.114756196737289429e-02 5.160706043243408203e-01 6.807448267936706543e-01 3.147569298744201660e-01 1.159636378288269043e+00 -8.754121065139770508e-01 2.071119785308837891e+00 8.423749357461929321e-02
-7.053039669990539551e-01 3.665805757045745850e-01 9.801989793777465820e-01 1.235298141837120056e-01 1.051221013069152832e+00 -1.710838377475738525e-01 1.681876420974731445e+00 3.506478965282440186e-01
-6.560645699501037598e-01 1.210775077342987061e-01 8.487975597381591797e-01 -3.969119489192962646e-01 1.602313995361328125e+00 -3.396919667720794678e-01 1.952410817146301270e+00 7.445133924484252930e-01
-2.978624403476715088e-01 7.484646514058113098e-03 9.814457893371582031e-01 1.427326560020446777e+00 -1.901778429746627808e-01 -8.769034743309020996e-01 1.487977862358093262e+00 7.615816593170166016e-01
-2.475329935550689697e-01 -1.555338781327009201e-02 4.441133737564086914e-01 5.476471781730651855e-01 1.111438989639282227e+00 -2.103266566991806030e-01 2.095782279968261719e+00 4.750361666083335876e-02
-1.302279531955718994e-01 -2.119076102972030640e-01 6.763486266136169434e-01 3.422382473945617676e-01 1.149442791938781738e+00 -8.309127092361450195e-01 1.955736398696899414e+00 2.209399044513702393e-01
-9.195697903633117676e-01 2.379392385482788086e-01 1.381627798080444336e+00 -1.473353981971740723e+00 2.246577024459838867e+00 -1.724258959293365479e-01 2.130843877792358398e+00 1.222377419471740723e+00
-4.086991399526596069e-02 2.580900788307189941e-01 5.224421620368957520e-01 8.865054845809936523e-01 7.999979853630065918e-01 -5.982735753059387207e-01 1.999376773834228516e+00 1.841659396886825562e-01
1.534710526466369629e-01 3.458977937698364258e-01 3.934997618198394775e-01 5.826607942581176758e-01 1.061706542968750000e+00 -7.330260276794433594e-01 2.084139347076416016e+00 1.002388894557952881e-01
-2.366440594196319580e-01 1.519514173269271851e-01 6.594323515892028809e-01 1.443469405174255371e+00 6.674082279205322266e-01 -1.515367478132247925e-01 1.684940218925476074e+00 -9.015271067619323730e-02
-4.299474358558654785e-01 -2.568067014217376709e-01 4.927061200141906738e-01 2.115754485130310059e-01 1.174413561820983887e+00 -5.544418096542358398e-02 1.925616860389709473e+00 5.292881131172180176e-01
-4.714740216732025146e-01 8.512346446514129639e-02 4.634546339511871338e-01 -5.228809118270874023e-01 1.726481318473815918e+00 -6.338673830032348633e-01 2.016449928283691406e+00 3.509454727172851562e-01
7.360953092575073242e-02 7.026156038045883179e-02 5.458995103836059570e-01 9.640628099441528320e-01 6.270774602890014648e-01 -5.792815685272216797e-01 1.807881832122802734e+00 3.544548153877258301e-01
4.955014586448669434e-02 -1.758847683668136597e-01 5.142753124237060547e-01 7.457594275474548340e-01 7.319570183753967285e-01 -9.909704923629760742e-01 1.956491112709045410e+00 2.862583287060260773e-02
-1.197419404983520508e+00 -6.295616030693054199e-01 1.745876550674438477e+00 -8.023394942283630371e-01 1.358632326126098633e+00 -6.727257370948791504e-01 1.625602483749389648e+00 6.923499703407287598e-01
5.358809828758239746e-01 2.854612767696380615e-01 2.655980885028839111e-01 6.116892024874687195e-02 1.434739589691162109e+00 -1.173151254653930664e+00 1.810711383819580078e+00 1.221646890044212341e-01
-4.873110055923461914e-01 1.478191763162612915e-01 1.041265368461608887e+00 1.636140197515487671e-01 9.083003401756286621e-01 -2.385318130254745483e-01 1.581628441810607910e+00 8.645628690719604492e-01
-1.202556565403938293e-01 3.221798539161682129e-01 4.408319294452667236e-01 8.985441923141479492e-01 6.948817968368530273e-01 -7.509184479713439941e-01 1.818202257156372070e+00 1.168045680969953537e-03
3.822893202304840088e-01 3.067748248577117920e-01 3.348664939403533936e-01 2.412615418434143066e-01 1.332684278488159180e+00 -1.288876414299011230e+00 2.212676525115966797e+00 -3.766536712646484375e-01
-8.079332709312438965e-01 -9.765774942934513092e-03 9.221314787864685059e-01 -1.060299992561340332e+00 1.933036327362060547e+00 -3.778710663318634033e-01 2.296627283096313477e+00 5.278358459472656250e-01
2.492212653160095215e-01 2.168577611446380615e-01 3.903780281543731689e-01 -9.637273102998733521e-02 1.467895746231079102e+00 -1.134299159049987793e+00 1.961514115333557129e+00 -1.756959408521652222e-01
-5.963848233222961426e-01 -4.860566854476928711e-01 1.102162837982177734e+00 -8.953001499176025391e-01 1.792959928512573242e+00 1.612963527441024780e-01 1.827187776565551758e+00 1.506650090217590332e+00
6.007120013236999512e-01 6.644611358642578125e-01 9.434264302253723145e-01 1.822049975395202637e+00 6.462353467941284180e-01 -5.869948267936706543e-01 1.929344534873962402e+00 1.763544827699661255e-01
-9.810055047273635864e-02 3.125232160091400146e-01 5.743022561073303223e-01 7.275704145431518555e-01 6.579028367996215820e-01 -6.946352720260620117e-01 1.774808287620544434e+00 -1.239265426993370056e-01
-4.535948038101196289e-01 7.569171488285064697e-02 3.984331488609313965e-01 -6.137196421623229980e-01 1.740318655967712402e+00 -5.304240584373474121e-01 2.533877134323120117e+00 2.235435098409652710e-01
-3.132766485214233398e-01 1.213950812816619873e-01 7.890024781227111816e-01 4.109393954277038574e-01 8.075341582298278809e-01 -1.772528886795043945e-01 1.863688230514526367e+00 6.637486815452575684e-01
-3.538335859775543213e-01 -1.602910645306110382e-02 7.390786409378051758e-01 5.694733262062072754e-01 5.395113825798034668e-01 -6.325947046279907227e-01 1.775854110717773438e+00 3.558734655380249023e-01
4.668109491467475891e-02 1.962376013398170471e-02 4.874455034732818604e-01 1.050639033317565918e+00 9.900437593460083008e-01 -7.774606943130493164e-01 2.268628120422363281e+00 -3.827827274799346924e-01
-3.964380025863647461e-01 1.030449569225311279e-01 9.290415644645690918e-01 -3.174670338630676270e-01 1.443843960762023926e+00 -5.044783949851989746e-01 1.836238384246826172e+00 7.196384668350219727e-01
2.380055338144302368e-01 4.075478911399841309e-01 4.558593332767486572e-01 7.085069417953491211e-01 7.395491003990173340e-01 -6.941952109336853027e-01 1.824488282203674316e+00 1.491631381213665009e-02
3.951117992401123047e-01 -1.432563662528991699e-01 4.437178671360015869e-01 9.961991310119628906e-01 1.077052712440490723e+00 -5.730953216552734375e-01 1.826558113098144531e+00 3.036019206047058105e-01
-5.740114450454711914e-01 1.062124967575073242e-01 7.138359546661376953e-01 -7.909239530563354492e-01 1.606876611709594727e+00 -4.719993770122528076e-01 2.007284879684448242e+00 9.666913151741027832e-01
4.186089932918548584e-01 2.215065658092498779e-01 2.630607485771179199e-01 2.832511663436889648e-01 1.234950780868530273e+00 -1.329762697219848633e+00 2.260432004928588867e+00 -1.671990156173706055e-01
1.851720958948135376e-01 2.903958261013031006e-01 6.222400069236755371e-01 6.842505931854248047e-01 1.081084012985229492e+00 -5.897455811500549316e-01 2.006765365600585938e+00 -2.247136980295181274e-01
4.905401468276977539e-01 -1.953359544277191162e-01 3.977096080780029297e-01 1.107131600379943848e+00 1.001324057579040527e+00 -4.648451209068298340e-01 1.783317208290100098e+00 -7.064469456672668457e-01
5.966857671737670898e-01 5.855706930160522461e-01 4.873844385147094727e-01 4.817208945751190186e-01 1.081200599670410156e+00 -1.023573637008666992e+00 1.890913009643554688e+00 -1.149974688887596130e-01
2.705867290496826172e-01 3.105503134429454803e-02 1.415134817361831665e-01 2.372949421405792236e-01 1.170461297035217285e+00 -8.747542500495910645e-01 2.025166511535644531e+00 -2.231516987085342407e-01
-1.177180409431457520e-01 4.670304954051971436e-01 3.085946738719940186e-01 1.130403757095336914e+00 7.831166982650756836e-01 -2.155083566904067993e-01 1.945403337478637695e+00 -2.900884747505187988e-01
4.088006615638732910e-01 1.989281773567199707e-01 5.042527914047241211e-01 1.589198589324951172e+00 5.576181411743164062e-01 -6.406682133674621582e-01 1.668677568435668945e+00 -8.396036177873611450e-02
3.120151758193969727e-01 3.150589764118194580e-01 4.510067701339721680e-01 3.632543981075286865e-01 1.020087242126464844e+00 -1.287568092346191406e+00 2.015285253524780273e+00 -2.060220986604690552e-01
2.620167136192321777e-01 -1.019814759492874146e-01 3.456014692783355713e-01 -3.095303177833557129e-01 1.598005294799804688e+00 -1.039086580276489258e+00 1.820593237876892090e+00 -8.159701526165008545e-02
2.731482982635498047e-01 1.963739395141601562e-01 3.128134012222290039e-01 7.628735303878784180e-01 1.107856512069702148e+00 -1.154552817344665527e+00 2.039927721023559570e+00 -3.792860507965087891e-01
4.389351308345794678e-01 3.519749045372009277e-01 3.704821467399597168e-01 1.233778521418571472e-01 1.505573987960815430e+00 -1.373543024063110352e+00 2.339320182800292969e+00 -1.575650423765182495e-01
6.969717144966125488e-01 2.244952470064163208e-01 3.202500343322753906e-01 2.220195382833480835e-01 1.470310330390930176e+00 -1.849897742271423340e+00 2.359542131423950195e+00 -3.475073873996734619e-01
2.902499139308929443e-01 1.434936076402664185e-01 3.579201996326446533e-01 -6.876643747091293335e-02 1.478718638420104980e+00 -1.410739302635192871e+00 1.900824189186096191e+00 -5.214877128601074219e-01
-5.158798694610595703e-01 3.458780646324157715e-01 1.131365180015563965e+00 -1.092170923948287964e-02 1.217289209365844727e+00 -3.168347775936126709e-01 1.854652881622314453e+00 9.208878278732299805e-01
-3.971485495567321777e-01 1.240621209144592285e-01 7.993528246879577637e-01 5.197778344154357910e-01 8.140143752098083496e-01 -7.035958766937255859e-01 1.904024362564086914e+00 3.423573374748229980e-01
-4.025659561157226562e-01 -5.257110297679901123e-02 3.936510980129241943e-01 1.105861142277717590e-01 1.354553341865539551e+00 -2.585066854953765869e-01 1.889670372009277344e+00 -4.396786913275718689e-02
2.892053127288818359e-01 4.119542986154556274e-02 1.946979761123657227e-01 2.064096778631210327e-01 1.233065724372863770e+00 -1.054564118385314941e+00 2.026572942733764648e+00 -2.541446983814239502e-01
6.711193174123764038e-02 3.780742287635803223e-01 5.302569866180419922e-01 1.149711132049560547e+00 5.723819136619567871e-01 -3.854155540466308594e-01 1.939829111099243164e+00 -3.450041413307189941e-01
-2.070003896951675415e-01 2.407995164394378662e-01 7.938303351402282715e-01 7.261438965797424316e-01 8.610408902168273926e-01 -2.062698155641555786e-01 1.898472905158996582e+00 2.065401375293731689e-01
-3.726689219474792480e-01 1.640510410070419312e-01 5.234360694885253906e-01 -1.520778983831405640e-01 1.209076523780822754e+00 -7.003703117370605469e-01 1.939851760864257812e+00 1.107601821422576904e-01
5.099967122077941895e-01 -5.186748504638671875e-02 2.369823902845382690e-01 1.238551020622253418e+00 1.026745676994323730e+00 -1.197530269622802734e+00 1.976061820983886719e+00 -5.906796455383300781e-01
1.574226468801498413e-01 4.594956338405609131e-01 6.998633742332458496e-01 3.917019367218017578e-01 9.681334495544433594e-01 -5.492261648178100586e-01 1.924568414688110352e+00 -3.757793307304382324e-01
-4.067572355270385742e-01 7.192806899547576904e-02 2.239488512277603149e-01 3.182488679885864258e-01 1.258752107620239258e+00 1.401985436677932739e-01 1.782438516616821289e+00 -2.848738431930541992e-01
5.369296073913574219e-01 3.296224474906921387e-01 1.928299069404602051e-01 -1.056048944592475891e-01 1.419597864151000977e+00 -1.237665295600891113e+00 1.801586031913757324e+00 -2.562043070793151855e-01
-2.473867535591125488e-01 -2.117014527320861816e-01 1.363550573587417603e-01 -1.257774680852890015e-01 1.315185785293579102e+00 -4.338161647319793701e-01 1.912276983261108398e+00 -3.923138603568077087e-02
-3.159705549478530884e-02 -3.584272265434265137e-01 7.579720616340637207e-01 4.949128627777099609e-02 1.584690809249877930e+00 -3.809095323085784912e-01 1.667302608489990234e+00 7.073375582695007324e-01
-2.331853359937667847e-01 2.358651012182235718e-01 6.333863735198974609e-01 2.367043942213058472e-01 8.528700470924377441e-01 -4.168646037578582764e-01 1.743448615074157715e+00 1.470297574996948242e-01
6.244800090789794922e-01 2.888394892215728760e-01 8.576461672782897949e-02 1.052381023764610291e-01 1.199208021163940430e+00 -1.517519116401672363e+00 2.088825702667236328e+00 -3.440003097057342529e-01
1.381071060895919800e-01 6.449456214904785156e-01 3.684169054031372070e-01 6.166401505470275879e-01 8.968155980110168457e-01 -6.794462800025939941e-01 2.235018968582153320e+00 -2.710905969142913818e-01
3.633368313312530518e-01 -2.995246089994907379e-02 6.624798178672790527e-01 1.183350920677185059e+00 9.108832478523254395e-01 -6.084508895874023438e-01 1.816485524177551270e+00 2.599636912345886230e-01
-5.352292656898498535e-01 1.595927625894546509e-01 9.742597937583923340e-01 -3.819815516471862793e-01 1.241505622863769531e+00 -5.001741647720336914e-01 1.966107964515686035e+00 4.465175569057464600e-01
3.172672986984252930e-01 2.530879080295562744e-01 4.504603445529937744e-01 1.400506377220153809e+00 1.916972547769546509e-01 -1.315451145172119141e+00 1.652307868003845215e+00 -7.827876508235931396e-02
-1.012472286820411682e-01 -1.276272535324096680e-01 4.264977872371673584e-01 1.002754449844360352e+00 8.043204545974731445e-01 -9.702894687652587891e-01 2.107718229293823242e+00 -2.889110445976257324e-01
1.125346347689628601e-01 2.108768820762634277e-01 6.458910703659057617e-01 1.462069511413574219e+00 8.939958810806274414e-01 -4.533691704273223877e-01 1.993800520896911621e+00 3.904601037502288818e-01
5.421221256256103516e-01 2.660283148288726807e-01 2.792272567749023438e-01 4.097829461097717285e-01 1.462930202484130859e+00 -1.494722843170166016e+00 2.339344024658203125e+00 -1.250864863395690918e-01
-7.979552447795867920e-02 8.059044927358627319e-02 5.327517986297607422e-01 -5.276288092136383057e-02 1.595937132835388184e+00 -8.312901854515075684e-01 2.096091985702514648e+00 2.122191786766052246e-01
4.209730625152587891e-01 3.704997897148132324e-01 7.766056656837463379e-01 1.534214019775390625e+00 3.949650526046752930e-01 -1.354095458984375000e+00 1.799246549606323242e+00 4.350353479385375977e-01
1.269674208015203476e-02 4.086493328213691711e-02 9.145683646202087402e-01 1.610642552375793457e+00 5.352124571800231934e-01 -1.613255590200424194e-01 1.594583749771118164e+00 1.874711811542510986e-01
-3.127917945384979248e-01 -2.880181372165679932e-01 9.022362828254699707e-01 -3.178546726703643799e-01 1.635157823562622070e+00 -1.164792105555534363e-01 1.614005684852600098e+00 1.387706041336059570e+00
6.863587498664855957e-01 6.510574370622634888e-02 1.880311071872711182e-01 -1.989144682884216309e-01 1.441237449645996094e+00 -1.729911804199218750e+00 2.038876771926879883e+00 -5.329346656799316406e-01
-1.162685632705688477e+00 -3.806039392948150635e-01 1.143830537796020508e+00 -6.567330956459045410e-01 1.047642230987548828e+00 -6.945917606353759766e-01 1.779037952423095703e+00 6.485145092010498047e-01
-7.574747204780578613e-01 -1.915901601314544678e-01 7.393910884857177734e-01 1.405315101146697998e-01 4.656083583831787109e-01 -7.622027397155761719e-01 1.618849754333496094e+00 6.652119755744934082e-01
3.046325445175170898e-01 2.028457522392272949e-01 4.513351917266845703e-01 1.283817172050476074e+00 7.323171496391296387e-01 -2.869825661182403564e-01 1.861504316329956055e+00 -4.270932376384735107e-01
2.294521331787109375e-01 4.755475819110870361e-01 5.894108414649963379e-01 2.866350114345550537e-01 1.000947237014770508e+00 -9.375153183937072754e-01 1.634526610374450684e+00 1.276035755872726440e-01
2.593528330326080322e-01 3.532483279705047607e-01 6.456704139709472656e-01 1.181963920593261719e+00 7.768723368644714355e-01 -3.908203840255737305e-01 1.985375761985778809e+00 5.273174047470092773e-01
1.835708916187286377e-01 -1.791122406721115112e-01 2.027948498725891113e-01 3.759358823299407959e-01 1.359442234039306641e+00 -1.090634226799011230e+00 2.063965320587158203e+00 -3.278355300426483154e-01
5.528846383094787598e-01 -1.714460700750350952e-01 1.418240070343017578e-01 2.459554076194763184e-01 1.412135004997253418e+00 -1.444844484329223633e+00 2.134131669998168945e+00 -4.435795545578002930e-01
2.336313082196284086e-05 1.454030573368072510e-01 7.048902511596679688e-01 4.367594718933105469e-01 1.117067456245422363e+00 -8.007100224494934082e-01 1.645481109619140625e+00 7.122502326965332031e-01
-5.054678767919540405e-02 2.275077700614929199e-01 8.681839704513549805e-01 5.696433186531066895e-01 8.667918443679809570e-01 -6.601805686950683594e-01 1.774554967880249023e+00 3.416959941387176514e-01
3.259708359837532043e-02 -2.210295572876930237e-02 5.856620669364929199e-01 8.062766194343566895e-01 9.313541054725646973e-01 -7.361459732055664062e-01 1.978470802307128906e+00 5.838665962219238281e-01
4.615247249603271484e-01 6.613797545433044434e-01 3.599804937839508057e-01 4.957089126110076904e-01 8.952815532684326172e-01 -9.280065298080444336e-01 1.712742686271667480e+00 -8.057063072919845581e-02
-4.992959201335906982e-01 1.195724010467529297e-01 5.433472394943237305e-01 2.426191270351409912e-01 1.070136427879333496e+00 -3.841571509838104248e-02 1.688601136207580566e+00 5.051209330558776855e-01
4.438604041934013367e-02 1.456262916326522827e-01 6.400021910667419434e-01 3.747607767581939697e-02 1.474104046821594238e+00 -8.370038866996765137e-01 2.156189680099487305e+00 2.579046785831451416e-01
-4.243548512458801270e-01 1.511957645416259766e-01 5.768886208534240723e-01 -3.302092552185058594e-01 1.362195849418640137e+00 -6.178539991378784180e-01 1.674826622009277344e+00 1.846326440572738647e-01
-1.507016122341156006e-01 -3.634111955761909485e-02 4.975085854530334473e-01 7.396863102912902832e-01 8.125075101852416992e-01 2.745063006877899170e-01 1.371731400489807129e+00 1.026497006416320801e+00
1.811462342739105225e-01 1.292068809270858765e-01 4.437033832073211670e-01 7.754503488540649414e-01 1.209749817848205566e+00 -7.998781800270080566e-01 1.913844466209411621e+00 -2.199010690674185753e-03
2.063036710023880005e-01 5.610535666346549988e-02 4.621082246303558350e-01 7.871973514556884766e-01 6.687580347061157227e-01 -9.681900143623352051e-01 1.839177846908569336e+00 1.675992012023925781e-01
3.216719627380371094e-01 4.180246591567993164e-01 6.826273798942565918e-01 1.792728304862976074e+00 4.344017505645751953e-01 -9.263927340507507324e-01 1.390043973922729492e+00 2.855901420116424561e-02
3.540014028549194336e-01 4.512814283370971680e-01 6.835730671882629395e-01 1.441468954086303711e+00 2.715327739715576172e-01 -1.181190490722656250e+00 1.796586871147155762e+00 7.574024051427841187e-02
3.433679044246673584e-01 -7.166286557912826538e-02 -6.630666553974151611e-02 2.798379063606262207e-01 1.186029672622680664e+00 -8.986347317695617676e-01 1.559035062789916992e+00 -8.527383208274841309e-01
-1.397505104541778564e-01 -1.504281461238861084e-01 3.336561918258666992e-01 1.047158837318420410e+00 6.884072422981262207e-01 -8.086538314819335938e-01 1.624652624130249023e+00 1.455720365047454834e-01
-8.128322958946228027e-01 2.414559572935104370e-01 1.260479807853698730e+00 -7.063954472541809082e-01 1.309359669685363770e+00 -3.824289143085479736e-02 1.719968795776367188e+00 7.538728713989257812e-01
3.846392780542373657e-02 3.037220612168312073e-02 5.703182816505432129e-01 5.027416944503784180e-01 9.141213893890380859e-01 -4.108115434646606445e-01 1.729435443878173828e+00 -5.839927121996879578e-02
-1.576975733041763306e-01 2.875353954732418060e-02 6.430449485778808594e-01 9.942853450775146484e-01 5.561690926551818848e-01 -8.146144151687622070e-01 1.649840712547302246e+00 2.848831117153167725e-01
-7.417908310890197754e-01 -1.326192170381546021e-01 6.595320105552673340e-01 -4.375709295272827148e-01 1.353612661361694336e+00 -3.688341081142425537e-01 1.840086698532104492e+00 6.977890729904174805e-01
-3.059393465518951416e-01 1.337809413671493530e-01 5.537596940994262695e-01 3.633880317211151123e-01 1.003663778305053711e+00 -3.346871733665466309e-01 1.594666838645935059e+00 1.573468893766403198e-01
2.264228761196136475e-01 1.720090657472610474e-01 6.705793142318725586e-01 8.531104922294616699e-01 6.109862923622131348e-01 -1.100645899772644043e+00 1.792471408843994141e+00 3.825122714042663574e-01
-3.885672688484191895e-01 2.739476561546325684e-01 4.271431565284729004e-01 9.271321296691894531e-01 5.464681386947631836e-01 -3.778372704982757568e-01 1.798528075218200684e+00 -2.556793689727783203e-01
-2.353265881538391113e-01 -1.115007027983665466e-01 4.277991950511932373e-01 7.183970212936401367e-01 6.737964749336242676e-01 -4.235686361789703369e-01 1.657768368721008301e+00 6.302531063556671143e-02
1.507714986801147461e-01 4.027506411075592041e-01 2.560231983661651611e-01 1.519927024841308594e+00 1.596970856189727783e-01 -6.466519236564636230e-01 1.288387775421142578e+00 3.428886411711573601e-03
-8.343772292137145996e-01 -3.131104260683059692e-02 1.110699295997619629e+00 -1.426776051521301270e-01 1.157409906387329102e+00 9.423388540744781494e-02 1.485141754150390625e+00 9.405160546302795410e-01
-5.200493931770324707e-01 2.729723453521728516e-01 5.378856062889099121e-01 2.577228546142578125e-01 7.477265596389770508e-01 -1.408981680870056152e-01 1.924659013748168945e+00 1.535336524248123169e-01
5.852592587471008301e-01 4.079689830541610718e-02 1.397991329431533813e-01 -6.242401525378227234e-02 1.468772172927856445e+00 -1.328071236610412598e+00 1.973307728767395020e+00 -4.591554701328277588e-01
3.054151535034179688e-01 -3.376730158925056458e-02 3.600718379020690918e-01 2.064944058656692505e-01 1.292410135269165039e+00 -1.162539243698120117e+00 2.084770202636718750e+00 -4.180343747138977051e-01
-7.357498407363891602e-01 -2.348491102457046509e-01 9.992487430572509766e-01 -7.312720417976379395e-01 1.552207350730895996e+00 -3.250043094158172607e-01 1.616364121437072754e+00 5.681399106979370117e-01
1.554012149572372437e-01 2.060935497283935547e-01 7.977602481842041016e-01 2.010226547718048096e-01 1.393139123916625977e+00 -6.635975837707519531e-01 1.953821420669555664e+00 -2.932758331298828125e-01
-3.591819405555725098e-01 -2.422426789999008179e-01 4.187125563621520996e-01 2.624517083168029785e-01 1.248223900794982910e+00 -5.446774959564208984e-01 1.675592660903930664e+00 9.458465129137039185e-02
3.264906406402587891e-01 1.873273849487304688e-01 5.193769335746765137e-01 7.486013174057006836e-01 1.025490045547485352e+00 -9.105266928672790527e-01 1.997942447662353516e+00 -1.555341482162475586e-01
1.172359883785247803e-01 3.011923730373382568e-01 6.024989485740661621e-01 1.036833286285400391e+00 7.985377311706542969e-02 -1.151485443115234375e+00 1.702601432800292969e+00 2.726068198680877686e-01
3.558007478713989258e-01 1.654698997735977173e-01 4.496831595897674561e-01 8.352350592613220215e-01 9.886177182197570801e-01 -1.183995366096496582e+00 2.114027976989746094e+00 -1.861256211996078491e-01
3.308170437812805176e-01 3.715064525604248047e-01 1.246422082185745239e-01 5.076784491539001465e-01 1.044410586357116699e+00 -7.225313782691955566e-01 1.929942965507507324e+00 -1.084949001669883728e-01
-5.039483904838562012e-01 -2.991785705089569092e-01 7.963971495628356934e-01 3.948433697223663330e-01 6.407500505447387695e-01 -2.130528092384338379e-01 1.520757555961608887e+00 7.015783190727233887e-01
-2.624102234840393066e-01 -4.005480706691741943e-01 7.663725018501281738e-01 3.387655019760131836e-01 7.730058431625366211e-01 -4.264046549797058105e-01 1.603840827941894531e+00 7.306783199310302734e-01
3.641094863414764404e-01 2.329736202955245972e-01 3.743055462837219238e-01 1.830522418022155762e-01 1.572980046272277832e+00 -1.032965302467346191e+00 2.358121395111083984e+00 -3.345653116703033447e-01
3.094133548438549042e-02 -5.267622694373130798e-02 4.995616674423217773e-01 6.199534535408020020e-01 8.381187319755554199e-01 -9.255381822586059570e-01 1.739132285118103027e+00 2.499376088380813599e-01
3.572463989257812500e-01 1.971421986818313599e-01 2.874157726764678955e-01 6.933652162551879883e-01 9.576118588447570801e-01 -1.091597318649291992e+00 1.649191737174987793e+00 -1.193025112152099609e-01
